<?xml version="1.0"?>
<opencv_storage>
<cascade>
  <stageType>BOOST</stageType>
  <featureType>HAAR</featureType>
  <height>40</height>
  <width>80</width>
  <stageParams>
    <boostType>GAB</boostType>
    <minHitRate>9.9900001287460327e-01</minHitRate>
    <maxFalseAlarm>5.0000000000000000e-01</maxFalseAlarm>
    <weightTrimRate>9.4999999999999996e-01</weightTrimRate>
    <maxDepth>1</maxDepth>
    <maxWeakCount>100</maxWeakCount></stageParams>
  <featureParams>
    <maxCatCount>0</maxCatCount>
    <featSize>1</featSize>
    <mode>ALL</mode></featureParams>
  <stageNum>20</stageNum>
  <stages>
    <!-- stage 0 -->
    <_>
      <maxWeakCount>8</maxWeakCount>
      <stageThreshold>-1.3476876020431519e+00</stageThreshold>
      <weakClassifiers>
        <_>
          <internalNodes>
            0 -1 169 3.3851171610876918e-04</internalNodes>
          <leafValues>
            -3.6090224981307983e-01 8.5785537958145142e-01</leafValues></_>
        <_>
          <internalNodes>
            0 -1 51 2.7647517621517181e-02</internalNodes>
          <leafValues>
            4.4133904576301575e-01 -9.2208379507064819e-01</leafValues></_>
        <_>
          <internalNodes>
            0 -1 215 -4.4814503053203225e-04</internalNodes>
          <leafValues>
            8.1770664453506470e-01 -3.9569711685180664e-01</leafValues></_>
        <_>
          <internalNodes>
            0 -1 288 5.4639141308143735e-04</internalNodes>
          <leafValues>
            -3.9715740084648132e-01 7.0529782772064209e-01</leafValues></_>
        <_>
          <internalNodes>
            0 -1 322 4.7345185885205865e-04</internalNodes>
          <leafValues>
            -3.3154132962226868e-01 8.1127947568893433e-01</leafValues></_>
        <_>
          <internalNodes>
            0 -1 256 2.3060687817633152e-04</internalNodes>
          <leafValues>
            -3.8325437903404236e-01 6.7953228950500488e-01</leafValues></_>
        <_>
          <internalNodes>
            0 -1 220 -3.0218819156289101e-03</internalNodes>
          <leafValues>
            8.5259026288986206e-01 -3.4769436717033386e-01</leafValues></_>
        <_>
          <internalNodes>
            0 -1 60 -2.5233281776309013e-02</internalNodes>
          <leafValues>
            -9.4171184301376343e-01 4.2722016572952271e-01</leafValues></_></weakClassifiers></_>
    <!-- stage 1 -->
    <_>
      <maxWeakCount>7</maxWeakCount>
      <stageThreshold>-1.2412563562393188e+00</stageThreshold>
      <weakClassifiers>
        <_>
          <internalNodes>
            0 -1 151 1.3466076925396919e-03</internalNodes>
          <leafValues>
            -3.2207480072975159e-01 8.6511021852493286e-01</leafValues></_>
        <_>
          <internalNodes>
            0 -1 162 1.2402634602040052e-03</internalNodes>
          <leafValues>
            -2.9261791706085205e-01 7.5613725185394287e-01</leafValues></_>
        <_>
          <internalNodes>
            0 -1 299 -7.0268264971673489e-04</internalNodes>
          <leafValues>
            8.6736947298049927e-01 -2.5656709074974060e-01</leafValues></_>
        <_>
          <internalNodes>
            0 -1 221 -8.6750357877463102e-04</internalNodes>
          <leafValues>
            8.2012444734573364e-01 -2.9257684946060181e-01</leafValues></_>
        <_>
          <internalNodes>
            0 -1 13 9.5495097339153290e-03</internalNodes>
          <leafValues>
            -5.4213279485702515e-01 6.3151168823242188e-01</leafValues></_>
        <_>
          <internalNodes>
            0 -1 238 3.0809669988229871e-04</internalNodes>
          <leafValues>
            -2.5579497218132019e-01 7.9165726900100708e-01</leafValues></_>
        <_>
          <internalNodes>
            0 -1 235 -1.9387041684240103e-03</internalNodes>
          <leafValues>
            7.9258745908737183e-01 -3.2824712991714478e-01</leafValues></_></weakClassifiers></_>
    <!-- stage 2 -->
    <_>
      <maxWeakCount>7</maxWeakCount>
      <stageThreshold>-7.6883745193481445e-01</stageThreshold>
      <weakClassifiers>
        <_>
          <internalNodes>
            0 -1 150 2.6941369287669659e-03</internalNodes>
          <leafValues>
            -1.7763157188892365e-01 8.1686043739318848e-01</leafValues></_>
        <_>
          <internalNodes>
            0 -1 196 1.7693508416414261e-02</internalNodes>
          <leafValues>
            3.1271034479141235e-01 -9.3908530473709106e-01</leafValues></_>
        <_>
          <internalNodes>
            0 -1 180 -2.6970066130161285e-02</internalNodes>
          <leafValues>
            -8.5456138849258423e-01 2.1316719055175781e-01</leafValues></_>
        <_>
          <internalNodes>
            0 -1 286 1.6832645051181316e-03</internalNodes>
          <leafValues>
            -3.6902508139610291e-01 5.4669523239135742e-01</leafValues></_>
        <_>
          <internalNodes>
            0 -1 220 -4.1320016607642174e-03</internalNodes>
          <leafValues>
            8.5482722520828247e-01 -2.5352248549461365e-01</leafValues></_>
        <_>
          <internalNodes>
            0 -1 15 1.0775881819427013e-02</internalNodes>
          <leafValues>
            -3.3176827430725098e-01 5.4726344347000122e-01</leafValues></_>
        <_>
          <internalNodes>
            0 -1 167 -9.7078196704387665e-03</internalNodes>
          <leafValues>
            -9.5665115118026733e-01 2.0999634265899658e-01</leafValues></_></weakClassifiers></_>
    <!-- stage 3 -->
    <_>
      <maxWeakCount>9</maxWeakCount>
      <stageThreshold>-8.8060563802719116e-01</stageThreshold>
      <weakClassifiers>
        <_>
          <internalNodes>
            0 -1 150 2.3123496212065220e-03</internalNodes>
          <leafValues>
            -1.7798595130443573e-01 7.3994636535644531e-01</leafValues></_>
        <_>
          <internalNodes>
            0 -1 252 -2.0271781831979752e-03</internalNodes>
          <leafValues>
            5.9744954109191895e-01 -3.0336749553680420e-01</leafValues></_>
        <_>
          <internalNodes>
            0 -1 222 9.0164149878546596e-04</internalNodes>
          <leafValues>
            -2.5488099455833435e-01 6.6557782888412476e-01</leafValues></_>
        <_>
          <internalNodes>
            0 -1 174 3.9688330143690109e-03</internalNodes>
          <leafValues>
            -2.2575934231281281e-01 7.2959423065185547e-01</leafValues></_>
        <_>
          <internalNodes>
            0 -1 263 -1.2227939441800117e-02</internalNodes>
          <leafValues>
            -8.5594475269317627e-01 2.2029946744441986e-01</leafValues></_>
        <_>
          <internalNodes>
            0 -1 319 2.3257678840309381e-03</internalNodes>
          <leafValues>
            -3.0571860074996948e-01 6.5384829044342041e-01</leafValues></_>
        <_>
          <internalNodes>
            0 -1 93 -1.2706028297543526e-02</internalNodes>
          <leafValues>
            5.6396752595901489e-01 -3.1877282261848450e-01</leafValues></_>
        <_>
          <internalNodes>
            0 -1 73 1.9555263221263885e-02</internalNodes>
          <leafValues>
            2.0147655904293060e-01 -9.4900399446487427e-01</leafValues></_>
        <_>
          <internalNodes>
            0 -1 214 -8.5430883336812258e-04</internalNodes>
          <leafValues>
            4.5953065156936646e-01 -3.6737087368965149e-01</leafValues></_></weakClassifiers></_>
    <!-- stage 4 -->
    <_>
      <maxWeakCount>13</maxWeakCount>
      <stageThreshold>-1.1057505607604980e+00</stageThreshold>
      <weakClassifiers>
        <_>
          <internalNodes>
            0 -1 7 1.3843219727277756e-02</internalNodes>
          <leafValues>
            -1.5236875414848328e-01 6.3369965553283691e-01</leafValues></_>
        <_>
          <internalNodes>
            0 -1 206 5.3779925219714642e-03</internalNodes>
          <leafValues>
            -3.6643400788307190e-01 4.1902363300323486e-01</leafValues></_>
        <_>
          <internalNodes>
            0 -1 140 1.6512998845428228e-03</internalNodes>
          <leafValues>
            -2.4641175568103790e-01 5.8586728572845459e-01</leafValues></_>
        <_>
          <internalNodes>
            0 -1 110 -2.6725772768259048e-03</internalNodes>
          <leafValues>
            4.8523756861686707e-01 -3.6769211292266846e-01</leafValues></_>
        <_>
          <internalNodes>
            0 -1 240 4.7050364082679152e-04</internalNodes>
          <leafValues>
            -2.9822593927383423e-01 4.9186366796493530e-01</leafValues></_>
        <_>
          <internalNodes>
            0 -1 77 -1.5747554134577513e-03</internalNodes>
          <leafValues>
            3.9994865655899048e-01 -3.3945062756538391e-01</leafValues></_>
        <_>
          <internalNodes>
            0 -1 281 -3.3220931887626648e-02</internalNodes>
          <leafValues>
            -7.5274395942687988e-01 2.0179288089275360e-01</leafValues></_>
        <_>
          <internalNodes>
            0 -1 305 1.2150272727012634e-02</internalNodes>
          <leafValues>
            1.3496981561183929e-01 -8.2207256555557251e-01</leafValues></_>
        <_>
          <internalNodes>
            0 -1 266 5.7758414186537266e-04</internalNodes>
          <leafValues>
            -2.9262113571166992e-01 5.1498669385910034e-01</leafValues></_>
        <_>
          <internalNodes>
            0 -1 266 -5.9554114704951644e-04</internalNodes>
          <leafValues>
            6.2801826000213623e-01 -2.2171744704246521e-01</leafValues></_>
        <_>
          <internalNodes>
            0 -1 342 -1.5263864770531654e-02</internalNodes>
          <leafValues>
            5.9168481826782227e-01 -1.8561621010303497e-01</leafValues></_>
        <_>
          <internalNodes>
            0 -1 317 3.8646678440272808e-03</internalNodes>
          <leafValues>
            -2.7506601810455322e-01 4.7627288103103638e-01</leafValues></_>
        <_>
          <internalNodes>
            0 -1 334 -4.8164902254939079e-03</internalNodes>
          <leafValues>
            6.5437471866607666e-01 -1.8586200475692749e-01</leafValues></_></weakClassifiers></_>
    <!-- stage 5 -->
    <_>
      <maxWeakCount>11</maxWeakCount>
      <stageThreshold>-8.1888902187347412e-01</stageThreshold>
      <weakClassifiers>
        <_>
          <internalNodes>
            0 -1 113 -1.8262219382449985e-03</internalNodes>
          <leafValues>
            7.5040519237518311e-01 -6.4089521765708923e-02</leafValues></_>
        <_>
          <internalNodes>
            0 -1 274 5.6345416232943535e-03</internalNodes>
          <leafValues>
            -2.3877114057540894e-01 6.9527631998062134e-01</leafValues></_>
        <_>
          <internalNodes>
            0 -1 220 -4.2169820517301559e-03</internalNodes>
          <leafValues>
            6.7043447494506836e-01 -2.4415019154548645e-01</leafValues></_>
        <_>
          <internalNodes>
            0 -1 200 -5.2291541360318661e-03</internalNodes>
          <leafValues>
            5.9584575891494751e-01 -2.2938086092472076e-01</leafValues></_>
        <_>
          <internalNodes>
            0 -1 105 -1.4420416206121445e-02</internalNodes>
          <leafValues>
            -9.5933842658996582e-01 1.5308547019958496e-01</leafValues></_>
        <_>
          <internalNodes>
            0 -1 88 1.2892324477434158e-02</internalNodes>
          <leafValues>
            -2.8615194559097290e-01 4.9677214026451111e-01</leafValues></_>
        <_>
          <internalNodes>
            0 -1 102 8.0259656533598900e-03</internalNodes>
          <leafValues>
            1.5905860066413879e-01 -9.0270757675170898e-01</leafValues></_>
        <_>
          <internalNodes>
            0 -1 258 -6.5922597423195839e-04</internalNodes>
          <leafValues>
            5.7887673377990723e-01 -2.4401882290840149e-01</leafValues></_>
        <_>
          <internalNodes>
            0 -1 264 3.8345484063029289e-03</internalNodes>
          <leafValues>
            -2.6694163680076599e-01 4.9802961945533752e-01</leafValues></_>
        <_>
          <internalNodes>
            0 -1 194 -2.3785689845681190e-03</internalNodes>
          <leafValues>
            -7.6780551671981812e-01 1.8172234296798706e-01</leafValues></_>
        <_>
          <internalNodes>
            0 -1 298 1.8464806489646435e-03</internalNodes>
          <leafValues>
            -2.5695109367370605e-01 5.9548294544219971e-01</leafValues></_></weakClassifiers></_>
    <!-- stage 6 -->
    <_>
      <maxWeakCount>17</maxWeakCount>
      <stageThreshold>-9.7183203697204590e-01</stageThreshold>
      <weakClassifiers>
        <_>
          <internalNodes>
            0 -1 1 2.7494516223669052e-02</internalNodes>
          <leafValues>
            -9.6911609172821045e-02 7.4281394481658936e-01</leafValues></_>
        <_>
          <internalNodes>
            0 -1 245 -7.0431148633360863e-03</internalNodes>
          <leafValues>
            4.7578907012939453e-01 -2.3848281800746918e-01</leafValues></_>
        <_>
          <internalNodes>
            0 -1 137 9.2373024672269821e-03</internalNodes>
          <leafValues>
            -1.8301941454410553e-01 6.2040841579437256e-01</leafValues></_>
        <_>
          <internalNodes>
            0 -1 252 -2.9018074274063110e-03</internalNodes>
          <leafValues>
            3.5510814189910889e-01 -3.1641972064971924e-01</leafValues></_>
        <_>
          <internalNodes>
            0 -1 225 1.3163469266146421e-03</internalNodes>
          <leafValues>
            -1.7316001653671265e-01 6.1238193511962891e-01</leafValues></_>
        <_>
          <internalNodes>
            0 -1 184 8.8307391852140427e-03</internalNodes>
          <leafValues>
            1.8273405730724335e-01 -7.7386736869812012e-01</leafValues></_>
        <_>
          <internalNodes>
            0 -1 276 -1.0083912638947368e-03</internalNodes>
          <leafValues>
            3.5893142223358154e-01 -3.3023560047149658e-01</leafValues></_>
        <_>
          <internalNodes>
            0 -1 163 9.5710717141628265e-03</internalNodes>
          <leafValues>
            1.6099767386913300e-01 -8.3234280347824097e-01</leafValues></_>
        <_>
          <internalNodes>
            0 -1 81 -2.5068212300539017e-02</internalNodes>
          <leafValues>
            7.2981142997741699e-01 -1.7853739857673645e-01</leafValues></_>
        <_>
          <internalNodes>
            0 -1 19 3.0233338475227356e-02</internalNodes>
          <leafValues>
            -1.8664710223674774e-01 6.1375486850738525e-01</leafValues></_>
        <_>
          <internalNodes>
            0 -1 257 5.8741429820656776e-03</internalNodes>
          <leafValues>
            -1.7170056700706482e-01 5.1950323581695557e-01</leafValues></_>
        <_>
          <internalNodes>
            0 -1 325 2.1954856812953949e-02</internalNodes>
          <leafValues>
            -1.6922830045223236e-01 5.4189974069595337e-01</leafValues></_>
        <_>
          <internalNodes>
            0 -1 208 2.3494981229305267e-02</internalNodes>
          <leafValues>
            1.2015283107757568e-01 -8.2284241914749146e-01</leafValues></_>
        <_>
          <internalNodes>
            0 -1 85 -2.4900194257497787e-03</internalNodes>
          <leafValues>
            4.8681840300559998e-01 -2.1882081031799316e-01</leafValues></_>
        <_>
          <internalNodes>
            0 -1 154 4.7788766096346080e-04</internalNodes>
          <leafValues>
            -2.6448488235473633e-01 4.3140301108360291e-01</leafValues></_>
        <_>
          <internalNodes>
            0 -1 247 6.6806719405576587e-04</internalNodes>
          <leafValues>
            1.3859029114246368e-01 -8.3735263347625732e-01</leafValues></_>
        <_>
          <internalNodes>
            0 -1 244 5.6382130424026400e-05</internalNodes>
          <leafValues>
            -4.1238608956336975e-01 2.6417434215545654e-01</leafValues></_></weakClassifiers></_>
    <!-- stage 7 -->
    <_>
      <maxWeakCount>13</maxWeakCount>
      <stageThreshold>-7.8021758794784546e-01</stageThreshold>
      <weakClassifiers>
        <_>
          <internalNodes>
            0 -1 138 8.8739711791276932e-03</internalNodes>
          <leafValues>
            3.4555327892303467e-01 -8.5826772451400757e-01</leafValues></_>
        <_>
          <internalNodes>
            0 -1 133 -6.8072527647018433e-03</internalNodes>
          <leafValues>
            5.2484798431396484e-01 -2.6457807421684265e-01</leafValues></_>
        <_>
          <internalNodes>
            0 -1 14 2.3137703537940979e-02</internalNodes>
          <leafValues>
            -2.7387925982475281e-01 4.6108815073966980e-01</leafValues></_>
        <_>
          <internalNodes>
            0 -1 321 -5.8857901021838188e-03</internalNodes>
          <leafValues>
            4.3570545315742493e-01 -2.5161096453666687e-01</leafValues></_>
        <_>
          <internalNodes>
            0 -1 104 -2.2742059081792831e-03</internalNodes>
          <leafValues>
            5.5067682266235352e-01 -2.1455678343772888e-01</leafValues></_>
        <_>
          <internalNodes>
            0 -1 123 -4.8440154641866684e-03</internalNodes>
          <leafValues>
            7.0790845155715942e-01 -1.5393076837062836e-01</leafValues></_>
        <_>
          <internalNodes>
            0 -1 48 -5.1523204892873764e-02</internalNodes>
          <leafValues>
            -8.8553994894027710e-01 1.5978623926639557e-01</leafValues></_>
        <_>
          <internalNodes>
            0 -1 69 -2.1869564428925514e-02</internalNodes>
          <leafValues>
            5.4870432615280151e-01 -2.0415839552879333e-01</leafValues></_>
        <_>
          <internalNodes>
            0 -1 201 -3.4375481773167849e-03</internalNodes>
          <leafValues>
            7.1687906980514526e-01 -1.4594721794128418e-01</leafValues></_>
        <_>
          <internalNodes>
            0 -1 226 1.9866660237312317e-02</internalNodes>
          <leafValues>
            -2.4170485138893127e-01 4.6942019462585449e-01</leafValues></_>
        <_>
          <internalNodes>
            0 -1 101 1.8879819661378860e-02</internalNodes>
          <leafValues>
            1.0665317624807358e-01 -8.9142292737960815e-01</leafValues></_>
        <_>
          <internalNodes>
            0 -1 328 -3.1898678280413151e-03</internalNodes>
          <leafValues>
            5.5202698707580566e-01 -1.8795581161975861e-01</leafValues></_>
        <_>
          <internalNodes>
            0 -1 120 -2.7454003691673279e-02</internalNodes>
          <leafValues>
            -8.0637454986572266e-01 1.4574648439884186e-01</leafValues></_></weakClassifiers></_>
    <!-- stage 8 -->
    <_>
      <maxWeakCount>22</maxWeakCount>
      <stageThreshold>-7.6076292991638184e-01</stageThreshold>
      <weakClassifiers>
        <_>
          <internalNodes>
            0 -1 135 4.4191894121468067e-03</internalNodes>
          <leafValues>
            -1.1716621369123459e-01 5.6120091676712036e-01</leafValues></_>
        <_>
          <internalNodes>
            0 -1 118 -3.3437525853514671e-03</internalNodes>
          <leafValues>
            3.4233850240707397e-01 -3.8329187035560608e-01</leafValues></_>
        <_>
          <internalNodes>
            0 -1 3 4.2447753250598907e-02</internalNodes>
          <leafValues>
            -1.9915482401847839e-01 5.2977353334426880e-01</leafValues></_>
        <_>
          <internalNodes>
            0 -1 164 2.5514566805213690e-03</internalNodes>
          <leafValues>
            -3.0432525277137756e-01 3.6072096228599548e-01</leafValues></_>
        <_>
          <internalNodes>
            0 -1 165 -1.4207480475306511e-02</internalNodes>
          <leafValues>
            5.7010060548782349e-01 -1.4578063786029816e-01</leafValues></_>
        <_>
          <internalNodes>
            0 -1 47 -3.5743817687034607e-02</internalNodes>
          <leafValues>
            -9.0210658311843872e-01 1.0396895557641983e-01</leafValues></_>
        <_>
          <internalNodes>
            0 -1 97 -8.8888909667730331e-03</internalNodes>
          <leafValues>
            -8.0128592252731323e-01 1.0698429495096207e-01</leafValues></_>
        <_>
          <internalNodes>
            0 -1 205 -2.1974388509988785e-03</internalNodes>
          <leafValues>
            -8.4812366962432861e-01 9.5760077238082886e-02</leafValues></_>
        <_>
          <internalNodes>
            0 -1 287 1.0919305495917797e-03</internalNodes>
          <leafValues>
            -2.1142141520977020e-01 5.5663037300109863e-01</leafValues></_>
        <_>
          <internalNodes>
            0 -1 289 1.2381235137581825e-03</internalNodes>
          <leafValues>
            -2.2344048321247101e-01 4.6175399422645569e-01</leafValues></_>
        <_>
          <internalNodes>
            0 -1 187 -4.6833707019686699e-03</internalNodes>
          <leafValues>
            -6.7664170265197754e-01 1.6770346462726593e-01</leafValues></_>
        <_>
          <internalNodes>
            0 -1 218 -4.5705330558121204e-03</internalNodes>
          <leafValues>
            -8.4292626380920410e-01 1.0367569327354431e-01</leafValues></_>
        <_>
          <internalNodes>
            0 -1 38 -2.7973834425210953e-02</internalNodes>
          <leafValues>
            5.3894335031509399e-01 -1.8553665280342102e-01</leafValues></_>
        <_>
          <internalNodes>
            0 -1 66 3.8985706865787506e-02</internalNodes>
          <leafValues>
            -1.9970957934856415e-01 6.2764966487884521e-01</leafValues></_>
        <_>
          <internalNodes>
            0 -1 311 4.5707039535045624e-03</internalNodes>
          <leafValues>
            -1.4916700124740601e-01 6.2999248504638672e-01</leafValues></_>
        <_>
          <internalNodes>
            0 -1 290 1.6065401723608375e-03</internalNodes>
          <leafValues>
            -2.3962028324604034e-01 4.5705747604370117e-01</leafValues></_>
        <_>
          <internalNodes>
            0 -1 246 -3.2993347849696875e-03</internalNodes>
          <leafValues>
            -6.0797321796417236e-01 2.0036202669143677e-01</leafValues></_>
        <_>
          <internalNodes>
            0 -1 277 1.4133533695712686e-03</internalNodes>
          <leafValues>
            -1.8144747614860535e-01 6.5058565139770508e-01</leafValues></_>
        <_>
          <internalNodes>
            0 -1 211 8.1967283040285110e-03</internalNodes>
          <leafValues>
            1.4835725724697113e-01 -8.9581865072250366e-01</leafValues></_>
        <_>
          <internalNodes>
            0 -1 95 -3.6398381926119328e-03</internalNodes>
          <leafValues>
            4.2044839262962341e-01 -2.5739946961402893e-01</leafValues></_>
        <_>
          <internalNodes>
            0 -1 304 -1.6595648601651192e-02</internalNodes>
          <leafValues>
            -6.7521631717681885e-01 1.5141926705837250e-01</leafValues></_>
        <_>
          <internalNodes>
            0 -1 224 -1.0089443530887365e-03</internalNodes>
          <leafValues>
            5.4651957750320435e-01 -2.1190579235553741e-01</leafValues></_></weakClassifiers></_>
    <!-- stage 9 -->
    <_>
      <maxWeakCount>19</maxWeakCount>
      <stageThreshold>-1.0151989459991455e+00</stageThreshold>
      <weakClassifiers>
        <_>
          <internalNodes>
            0 -1 344 -1.3226687908172607e-02</internalNodes>
          <leafValues>
            7.8801840543746948e-01 4.9742709845304489e-02</leafValues></_>
        <_>
          <internalNodes>
            0 -1 173 2.3598326370120049e-03</internalNodes>
          <leafValues>
            -1.7831233143806458e-01 4.7670096158981323e-01</leafValues></_>
        <_>
          <internalNodes>
            0 -1 267 5.0619029207155108e-04</internalNodes>
          <leafValues>
            -2.7332863211631775e-01 3.7008240818977356e-01</leafValues></_>
        <_>
          <internalNodes>
            0 -1 278 1.1883121915161610e-03</internalNodes>
          <leafValues>
            -1.6185723245143890e-01 7.2795104980468750e-01</leafValues></_>
        <_>
          <internalNodes>
            0 -1 37 4.0520299226045609e-02</internalNodes>
          <leafValues>
            1.8594101071357727e-01 -6.7869520187377930e-01</leafValues></_>
        <_>
          <internalNodes>
            0 -1 254 -4.1972743347287178e-03</internalNodes>
          <leafValues>
            3.6628675460815430e-01 -2.8205639123916626e-01</leafValues></_>
        <_>
          <internalNodes>
            0 -1 42 -6.8970647407695651e-04</internalNodes>
          <leafValues>
            -5.5081319808959961e-01 1.4904303848743439e-01</leafValues></_>
        <_>
          <internalNodes>
            0 -1 241 9.4461552798748016e-03</internalNodes>
          <leafValues>
            -2.5917986035346985e-01 3.9129340648651123e-01</leafValues></_>
        <_>
          <internalNodes>
            0 -1 186 6.5090567804872990e-03</internalNodes>
          <leafValues>
            1.5067026019096375e-01 -8.5826671123504639e-01</leafValues></_>
        <_>
          <internalNodes>
            0 -1 335 2.0247774198651314e-02</internalNodes>
          <leafValues>
            -2.3457010090351105e-01 5.0503230094909668e-01</leafValues></_>
        <_>
          <internalNodes>
            0 -1 271 2.2174748592078686e-03</internalNodes>
          <leafValues>
            -1.7056334018707275e-01 5.4752922058105469e-01</leafValues></_>
        <_>
          <internalNodes>
            0 -1 323 1.0545127093791962e-02</internalNodes>
          <leafValues>
            -1.2999425828456879e-01 6.5235042572021484e-01</leafValues></_>
        <_>
          <internalNodes>
            0 -1 166 -1.5465052798390388e-02</internalNodes>
          <leafValues>
            -8.7782073020935059e-01 1.3010880351066589e-01</leafValues></_>
        <_>
          <internalNodes>
            0 -1 50 -1.4294514432549477e-02</internalNodes>
          <leafValues>
            7.3327392339706421e-01 -1.5803349018096924e-01</leafValues></_>
        <_>
          <internalNodes>
            0 -1 193 3.9610816165804863e-03</internalNodes>
          <leafValues>
            1.4732976257801056e-01 -7.9792422056198120e-01</leafValues></_>
        <_>
          <internalNodes>
            0 -1 29 -1.2498794123530388e-02</internalNodes>
          <leafValues>
            6.1638659238815308e-01 -1.7346079647541046e-01</leafValues></_>
        <_>
          <internalNodes>
            0 -1 179 3.2924232073128223e-03</internalNodes>
          <leafValues>
            1.5949083864688873e-01 -7.0812028646469116e-01</leafValues></_>
        <_>
          <internalNodes>
            0 -1 231 -4.2583968024700880e-04</internalNodes>
          <leafValues>
            2.7316415309906006e-01 -3.4451058506965637e-01</leafValues></_>
        <_>
          <internalNodes>
            0 -1 192 -2.4504284374415874e-03</internalNodes>
          <leafValues>
            -9.2743486166000366e-01 9.3394450843334198e-02</leafValues></_></weakClassifiers></_>
    <!-- stage 10 -->
    <_>
      <maxWeakCount>20</maxWeakCount>
      <stageThreshold>-7.4220371246337891e-01</stageThreshold>
      <weakClassifiers>
        <_>
          <internalNodes>
            0 -1 275 4.2122392915189266e-03</internalNodes>
          <leafValues>
            3.5204567015171051e-02 6.6120219230651855e-01</leafValues></_>
        <_>
          <internalNodes>
            0 -1 86 -1.9012518227100372e-02</internalNodes>
          <leafValues>
            3.9681541919708252e-01 -2.1474248170852661e-01</leafValues></_>
        <_>
          <internalNodes>
            0 -1 316 1.4944490976631641e-03</internalNodes>
          <leafValues>
            -2.4129243195056915e-01 3.9598709344863892e-01</leafValues></_>
        <_>
          <internalNodes>
            0 -1 234 -7.3161264881491661e-03</internalNodes>
          <leafValues>
            5.2472138404846191e-01 -1.9831435382366180e-01</leafValues></_>
        <_>
          <internalNodes>
            0 -1 189 -3.4197433851659298e-03</internalNodes>
          <leafValues>
            4.5577663183212280e-01 -1.7349252104759216e-01</leafValues></_>
        <_>
          <internalNodes>
            0 -1 253 -6.4613530412316322e-05</internalNodes>
          <leafValues>
            -3.9694663882255554e-01 2.3849244415760040e-01</leafValues></_>
        <_>
          <internalNodes>
            0 -1 131 3.8645877502858639e-03</internalNodes>
          <leafValues>
            -1.4461180567741394e-01 5.3148037195205688e-01</leafValues></_>
        <_>
          <internalNodes>
            0 -1 198 -4.0915175341069698e-03</internalNodes>
          <leafValues>
            5.7395476102828979e-01 -1.3199082016944885e-01</leafValues></_>
        <_>
          <internalNodes>
            0 -1 338 2.0711041986942291e-02</internalNodes>
          <leafValues>
            -1.1161856353282928e-01 7.6226079463958740e-01</leafValues></_>
        <_>
          <internalNodes>
            0 -1 339 5.3537925705313683e-03</internalNodes>
          <leafValues>
            -1.6901491582393646e-01 4.8201885819435120e-01</leafValues></_>
        <_>
          <internalNodes>
            0 -1 203 5.0970056327059865e-04</internalNodes>
          <leafValues>
            -2.5461024045944214e-01 3.5177889466285706e-01</leafValues></_>
        <_>
          <internalNodes>
            0 -1 177 -9.7336126491427422e-03</internalNodes>
          <leafValues>
            -7.1337157487869263e-01 1.2951137125492096e-01</leafValues></_>
        <_>
          <internalNodes>
            0 -1 87 -1.1148257181048393e-02</internalNodes>
          <leafValues>
            -6.8359017372131348e-01 1.0416540503501892e-01</leafValues></_>
        <_>
          <internalNodes>
            0 -1 59 3.9549898356199265e-03</internalNodes>
          <leafValues>
            -1.8798756599426270e-01 4.4521239399909973e-01</leafValues></_>
        <_>
          <internalNodes>
            0 -1 49 -3.4870707895606756e-03</internalNodes>
          <leafValues>
            5.0339818000793457e-01 -1.6250729560852051e-01</leafValues></_>
        <_>
          <internalNodes>
            0 -1 126 1.1896818177774549e-03</internalNodes>
          <leafValues>
            -1.6281540691852570e-01 5.0119280815124512e-01</leafValues></_>
        <_>
          <internalNodes>
            0 -1 64 6.0697654262185097e-03</internalNodes>
          <leafValues>
            1.7520090937614441e-01 -6.7295598983764648e-01</leafValues></_>
        <_>
          <internalNodes>
            0 -1 130 6.9855581969022751e-03</internalNodes>
          <leafValues>
            -2.4166403710842133e-01 3.7685433030128479e-01</leafValues></_>
        <_>
          <internalNodes>
            0 -1 17 -1.1223385808989406e-04</internalNodes>
          <leafValues>
            -4.8661860823631287e-01 1.7108584940433502e-01</leafValues></_>
        <_>
          <internalNodes>
            0 -1 284 4.8298167530447245e-04</internalNodes>
          <leafValues>
            -2.1457523107528687e-01 3.8998064398765564e-01</leafValues></_></weakClassifiers></_>
    <!-- stage 11 -->
    <_>
      <maxWeakCount>23</maxWeakCount>
      <stageThreshold>-1.2453151941299438e+00</stageThreshold>
      <weakClassifiers>
        <_>
          <internalNodes>
            0 -1 8 1.4675656333565712e-02</internalNodes>
          <leafValues>
            -9.3750000000000000e-02 5.6730771064758301e-01</leafValues></_>
        <_>
          <internalNodes>
            0 -1 204 2.7389905881136656e-04</internalNodes>
          <leafValues>
            -3.1314167380332947e-01 3.4919062256813049e-01</leafValues></_>
        <_>
          <internalNodes>
            0 -1 74 5.0697824917733669e-04</internalNodes>
          <leafValues>
            -2.2583611309528351e-01 3.7814465165138245e-01</leafValues></_>
        <_>
          <internalNodes>
            0 -1 90 3.9936073124408722e-02</internalNodes>
          <leafValues>
            1.2054283171892166e-01 -6.9064968824386597e-01</leafValues></_>
        <_>
          <internalNodes>
            0 -1 239 2.5857647415250540e-04</internalNodes>
          <leafValues>
            -2.6210826635360718e-01 3.7714532017707825e-01</leafValues></_>
        <_>
          <internalNodes>
            0 -1 265 -6.9887621793895960e-04</internalNodes>
          <leafValues>
            3.9151936769485474e-01 -2.6675975322723389e-01</leafValues></_>
        <_>
          <internalNodes>
            0 -1 341 1.5360141173005104e-02</internalNodes>
          <leafValues>
            -1.5359142422676086e-01 5.2931672334671021e-01</leafValues></_>
        <_>
          <internalNodes>
            0 -1 227 2.4601971730589867e-02</internalNodes>
          <leafValues>
            8.8768072426319122e-02 -9.0392738580703735e-01</leafValues></_>
        <_>
          <internalNodes>
            0 -1 210 8.1968288868665695e-03</internalNodes>
          <leafValues>
            7.7846340835094452e-02 -8.8328301906585693e-01</leafValues></_>
        <_>
          <internalNodes>
            0 -1 185 -2.2587614133954048e-02</internalNodes>
          <leafValues>
            -8.3244389295578003e-01 8.0106921494007111e-02</leafValues></_>
        <_>
          <internalNodes>
            0 -1 262 1.7312089912593365e-03</internalNodes>
          <leafValues>
            9.6792683005332947e-02 -7.4621760845184326e-01</leafValues></_>
        <_>
          <internalNodes>
            0 -1 76 1.9080480560660362e-02</internalNodes>
          <leafValues>
            -1.2759953737258911e-01 7.3534584045410156e-01</leafValues></_>
        <_>
          <internalNodes>
            0 -1 70 1.2967094779014587e-02</internalNodes>
          <leafValues>
            -1.6987894475460052e-01 5.0693732500076294e-01</leafValues></_>
        <_>
          <internalNodes>
            0 -1 280 -1.8421704880893230e-03</internalNodes>
          <leafValues>
            -7.6661711931228638e-01 1.1948408931493759e-01</leafValues></_>
        <_>
          <internalNodes>
            0 -1 312 4.8562226584181190e-04</internalNodes>
          <leafValues>
            -2.5782030820846558e-01 3.5943827033042908e-01</leafValues></_>
        <_>
          <internalNodes>
            0 -1 294 1.6014946158975363e-03</internalNodes>
          <leafValues>
            -2.3697309195995331e-01 3.8763526082038879e-01</leafValues></_>
        <_>
          <internalNodes>
            0 -1 269 2.9381150379776955e-03</internalNodes>
          <leafValues>
            1.4308410882949829e-01 -6.6635185480117798e-01</leafValues></_>
        <_>
          <internalNodes>
            0 -1 268 -5.5238662753254175e-04</internalNodes>
          <leafValues>
            4.3081119656562805e-01 -2.1589259803295135e-01</leafValues></_>
        <_>
          <internalNodes>
            0 -1 94 5.5289627052843571e-03</internalNodes>
          <leafValues>
            1.6565620899200439e-01 -5.8000504970550537e-01</leafValues></_>
        <_>
          <internalNodes>
            0 -1 302 2.3253706749528646e-03</internalNodes>
          <leafValues>
            1.0677078366279602e-01 -6.6730493307113647e-01</leafValues></_>
        <_>
          <internalNodes>
            0 -1 248 -4.0366395842283964e-04</internalNodes>
          <leafValues>
            3.6423176527023315e-01 -2.4448207020759583e-01</leafValues></_>
        <_>
          <internalNodes>
            0 -1 170 -6.7901459988206625e-04</internalNodes>
          <leafValues>
            2.4436892569065094e-01 -3.4187304973602295e-01</leafValues></_>
        <_>
          <internalNodes>
            0 -1 156 2.4609996471554041e-03</internalNodes>
          <leafValues>
            -1.9284205138683319e-01 5.2210533618927002e-01</leafValues></_></weakClassifiers></_>
    <!-- stage 12 -->
    <_>
      <maxWeakCount>20</maxWeakCount>
      <stageThreshold>-9.9091774225234985e-01</stageThreshold>
      <weakClassifiers>
        <_>
          <internalNodes>
            0 -1 91 -6.1258149798959494e-04</internalNodes>
          <leafValues>
            -2.3678161203861237e-01 4.3175965547561646e-01</leafValues></_>
        <_>
          <internalNodes>
            0 -1 256 3.2843905501067638e-04</internalNodes>
          <leafValues>
            -2.3136869072914124e-01 3.7789741158485413e-01</leafValues></_>
        <_>
          <internalNodes>
            0 -1 249 8.6383963935077190e-04</internalNodes>
          <leafValues>
            -2.6891621947288513e-01 3.9668279886245728e-01</leafValues></_>
        <_>
          <internalNodes>
            0 -1 345 -1.0273259133100510e-02</internalNodes>
          <leafValues>
            4.5897439122200012e-01 -2.0048563182353973e-01</leafValues></_>
        <_>
          <internalNodes>
            0 -1 10 5.7846117764711380e-02</internalNodes>
          <leafValues>
            -1.8401063978672028e-01 5.6681585311889648e-01</leafValues></_>
        <_>
          <internalNodes>
            0 -1 155 1.5667642001062632e-03</internalNodes>
          <leafValues>
            -1.0483136028051376e-01 5.6412720680236816e-01</leafValues></_>
        <_>
          <internalNodes>
            0 -1 92 1.7133818473666906e-03</internalNodes>
          <leafValues>
            -1.9666345417499542e-01 5.3553527593612671e-01</leafValues></_>
        <_>
          <internalNodes>
            0 -1 72 1.9122947007417679e-02</internalNodes>
          <leafValues>
            1.5141220390796661e-01 -8.5792505741119385e-01</leafValues></_>
        <_>
          <internalNodes>
            0 -1 83 -1.8130889162421227e-02</internalNodes>
          <leafValues>
            -9.1612774133682251e-01 4.9544438719749451e-02</leafValues></_>
        <_>
          <internalNodes>
            0 -1 21 -9.9628977477550507e-03</internalNodes>
          <leafValues>
            4.5617222785949707e-01 -2.1482953429222107e-01</leafValues></_>
        <_>
          <internalNodes>
            0 -1 124 -2.7497312985360622e-03</internalNodes>
          <leafValues>
            6.6653960943222046e-01 -1.3444921374320984e-01</leafValues></_>
        <_>
          <internalNodes>
            0 -1 0 3.2640852034091949e-02</internalNodes>
          <leafValues>
            -1.8100221455097198e-01 4.2996367812156677e-01</leafValues></_>
        <_>
          <internalNodes>
            0 -1 84 -1.8933764658868313e-03</internalNodes>
          <leafValues>
            3.7706053256988525e-01 -2.1795144677162170e-01</leafValues></_>
        <_>
          <internalNodes>
            0 -1 63 -3.7124004215002060e-02</internalNodes>
          <leafValues>
            -7.6904320716857910e-01 1.2245765328407288e-01</leafValues></_>
        <_>
          <internalNodes>
            0 -1 212 3.4679779782891273e-03</internalNodes>
          <leafValues>
            8.6689509451389313e-02 -7.5471174716949463e-01</leafValues></_>
        <_>
          <internalNodes>
            0 -1 279 2.0121994893997908e-03</internalNodes>
          <leafValues>
            1.2737260758876801e-01 -5.6942188739776611e-01</leafValues></_>
        <_>
          <internalNodes>
            0 -1 336 6.8825064226984978e-03</internalNodes>
          <leafValues>
            -1.0262585431337357e-01 8.3347952365875244e-01</leafValues></_>
        <_>
          <internalNodes>
            0 -1 107 1.5979062765836716e-02</internalNodes>
          <leafValues>
            1.1262322217226028e-01 -8.4780740737915039e-01</leafValues></_>
        <_>
          <internalNodes>
            0 -1 223 -1.1701916810125113e-03</internalNodes>
          <leafValues>
            4.4863426685333252e-01 -1.9091174006462097e-01</leafValues></_>
        <_>
          <internalNodes>
            0 -1 243 2.9319573659449816e-03</internalNodes>
          <leafValues>
            -2.4293851852416992e-01 4.1929587721824646e-01</leafValues></_></weakClassifiers></_>
    <!-- stage 13 -->
    <_>
      <maxWeakCount>19</maxWeakCount>
      <stageThreshold>-8.3481252193450928e-01</stageThreshold>
      <weakClassifiers>
        <_>
          <internalNodes>
            0 -1 12 2.9178069904446602e-02</internalNodes>
          <leafValues>
            1.2605042196810246e-02 5.9876543283462524e-01</leafValues></_>
        <_>
          <internalNodes>
            0 -1 112 -1.9027807284146547e-03</internalNodes>
          <leafValues>
            5.3662788867950439e-01 -1.3300998508930206e-01</leafValues></_>
        <_>
          <internalNodes>
            0 -1 112 1.0723320301622152e-03</internalNodes>
          <leafValues>
            -1.9299231469631195e-01 4.9624314904212952e-01</leafValues></_>
        <_>
          <internalNodes>
            0 -1 136 -2.2260677069425583e-03</internalNodes>
          <leafValues>
            6.2525779008865356e-01 -1.1357400566339493e-01</leafValues></_>
        <_>
          <internalNodes>
            0 -1 324 1.2360012158751488e-02</internalNodes>
          <leafValues>
            -2.1417157351970673e-01 3.9377516508102417e-01</leafValues></_>
        <_>
          <internalNodes>
            0 -1 32 3.2672725617885590e-02</internalNodes>
          <leafValues>
            -2.0115043222904205e-01 4.3117564916610718e-01</leafValues></_>
        <_>
          <internalNodes>
            0 -1 191 2.7479194104671478e-03</internalNodes>
          <leafValues>
            1.2863029539585114e-01 -8.0300259590148926e-01</leafValues></_>
        <_>
          <internalNodes>
            0 -1 41 2.0636308938264847e-02</internalNodes>
          <leafValues>
            -1.7485228180885315e-01 5.4065912961959839e-01</leafValues></_>
        <_>
          <internalNodes>
            0 -1 67 -9.7816083580255508e-03</internalNodes>
          <leafValues>
            4.6399781107902527e-01 -1.9166596233844757e-01</leafValues></_>
        <_>
          <internalNodes>
            0 -1 330 -9.1765692923218012e-04</internalNodes>
          <leafValues>
            3.2097047567367554e-01 -2.6913923025131226e-01</leafValues></_>
        <_>
          <internalNodes>
            0 -1 283 3.8618296384811401e-03</internalNodes>
          <leafValues>
            -1.9031511247158051e-01 3.9337277412414551e-01</leafValues></_>
        <_>
          <internalNodes>
            0 -1 292 -2.5870506651699543e-03</internalNodes>
          <leafValues>
            5.6808906793594360e-01 -1.6343867778778076e-01</leafValues></_>
        <_>
          <internalNodes>
            0 -1 217 -1.0800661519169807e-02</internalNodes>
          <leafValues>
            -6.4482426643371582e-01 1.6612000763416290e-01</leafValues></_>
        <_>
          <internalNodes>
            0 -1 306 2.1188221871852875e-03</internalNodes>
          <leafValues>
            -2.0637440681457520e-01 4.1086220741271973e-01</leafValues></_>
        <_>
          <internalNodes>
            0 -1 175 -2.3145128507167101e-03</internalNodes>
          <leafValues>
            5.8170312643051147e-01 -1.5911111235618591e-01</leafValues></_>
        <_>
          <internalNodes>
            0 -1 329 5.7309912517666817e-03</internalNodes>
          <leafValues>
            -1.1588978767395020e-01 6.9242566823959351e-01</leafValues></_>
        <_>
          <internalNodes>
            0 -1 230 -5.1628376240842044e-05</internalNodes>
          <leafValues>
            2.0849995315074921e-01 -4.1376656293869019e-01</leafValues></_>
        <_>
          <internalNodes>
            0 -1 134 2.9777025338262320e-03</internalNodes>
          <leafValues>
            -2.1480426192283630e-01 4.1484546661376953e-01</leafValues></_>
        <_>
          <internalNodes>
            0 -1 106 1.2907959520816803e-02</internalNodes>
          <leafValues>
            1.3198441267013550e-01 -7.5191742181777954e-01</leafValues></_></weakClassifiers></_>
    <!-- stage 14 -->
    <_>
      <maxWeakCount>23</maxWeakCount>
      <stageThreshold>-1.0322313308715820e+00</stageThreshold>
      <weakClassifiers>
        <_>
          <internalNodes>
            0 -1 108 5.9777633287012577e-03</internalNodes>
          <leafValues>
            6.3694268465042114e-03 5.9878420829772949e-01</leafValues></_>
        <_>
          <internalNodes>
            0 -1 9 1.4864502474665642e-02</internalNodes>
          <leafValues>
            -1.8693321943283081e-01 4.8073005676269531e-01</leafValues></_>
        <_>
          <internalNodes>
            0 -1 190 7.0451933424919844e-05</internalNodes>
          <leafValues>
            -3.5521370172500610e-01 2.5413656234741211e-01</leafValues></_>
        <_>
          <internalNodes>
            0 -1 229 -4.0952377021312714e-03</internalNodes>
          <leafValues>
            -6.7844545841217041e-01 9.1199539601802826e-02</leafValues></_>
        <_>
          <internalNodes>
            0 -1 144 4.2179422453045845e-03</internalNodes>
          <leafValues>
            -2.5081944465637207e-01 3.3212447166442871e-01</leafValues></_>
        <_>
          <internalNodes>
            0 -1 159 2.1990980021655560e-03</internalNodes>
          <leafValues>
            9.4271153211593628e-02 -8.4784483909606934e-01</leafValues></_>
        <_>
          <internalNodes>
            0 -1 78 -2.5160040706396103e-02</internalNodes>
          <leafValues>
            -9.2027223110198975e-01 7.1911051869392395e-02</leafValues></_>
        <_>
          <internalNodes>
            0 -1 161 2.8208438307046890e-03</internalNodes>
          <leafValues>
            -2.3046049475669861e-01 3.3151531219482422e-01</leafValues></_>
        <_>
          <internalNodes>
            0 -1 101 2.1636694669723511e-02</internalNodes>
          <leafValues>
            8.2834750413894653e-02 -9.4123774766921997e-01</leafValues></_>
        <_>
          <internalNodes>
            0 -1 153 9.5830466598272324e-03</internalNodes>
          <leafValues>
            -1.6894336044788361e-01 4.6440154314041138e-01</leafValues></_>
        <_>
          <internalNodes>
            0 -1 148 -7.2106197476387024e-03</internalNodes>
          <leafValues>
            5.4501694440841675e-01 -2.0939765870571136e-01</leafValues></_>
        <_>
          <internalNodes>
            0 -1 55 1.1373668909072876e-02</internalNodes>
          <leafValues>
            -1.2653289735317230e-01 5.6258028745651245e-01</leafValues></_>
        <_>
          <internalNodes>
            0 -1 31 4.1877385228872299e-02</internalNodes>
          <leafValues>
            -1.5456610918045044e-01 5.0036871433258057e-01</leafValues></_>
        <_>
          <internalNodes>
            0 -1 61 -1.1099737137556076e-02</internalNodes>
          <leafValues>
            4.6504479646682739e-01 -1.6218715906143188e-01</leafValues></_>
        <_>
          <internalNodes>
            0 -1 183 -1.6785975545644760e-02</internalNodes>
          <leafValues>
            -7.5559723377227783e-01 1.2092734128236771e-01</leafValues></_>
        <_>
          <internalNodes>
            0 -1 237 -1.0418298188596964e-03</internalNodes>
          <leafValues>
            3.6655861139297485e-01 -2.3542670905590057e-01</leafValues></_>
        <_>
          <internalNodes>
            0 -1 237 1.2293615145608783e-03</internalNodes>
          <leafValues>
            -1.6170270740985870e-01 6.4444422721862793e-01</leafValues></_>
        <_>
          <internalNodes>
            0 -1 178 -2.6159682311117649e-03</internalNodes>
          <leafValues>
            -7.6377290487289429e-01 1.3293865323066711e-01</leafValues></_>
        <_>
          <internalNodes>
            0 -1 125 -1.9861701875925064e-03</internalNodes>
          <leafValues>
            4.2381277680397034e-01 -1.8983265757560730e-01</leafValues></_>
        <_>
          <internalNodes>
            0 -1 127 1.2591356644406915e-03</internalNodes>
          <leafValues>
            -2.1223093569278717e-01 4.2738705873489380e-01</leafValues></_>
        <_>
          <internalNodes>
            0 -1 209 -8.3486307412385941e-03</internalNodes>
          <leafValues>
            -7.6780831813812256e-01 1.0987178236246109e-01</leafValues></_>
        <_>
          <internalNodes>
            0 -1 2 -4.2642951011657715e-02</internalNodes>
          <leafValues>
            7.1814680099487305e-01 -1.3336893916130066e-01</leafValues></_>
        <_>
          <internalNodes>
            0 -1 295 2.9312912374734879e-03</internalNodes>
          <leafValues>
            1.2083637714385986e-01 -8.1612157821655273e-01</leafValues></_></weakClassifiers></_>
    <!-- stage 15 -->
    <_>
      <maxWeakCount>21</maxWeakCount>
      <stageThreshold>-8.2994258403778076e-01</stageThreshold>
      <weakClassifiers>
        <_>
          <internalNodes>
            0 -1 188 6.4492630772292614e-03</internalNodes>
          <leafValues>
            3.1443637609481812e-01 -9.2771083116531372e-01</leafValues></_>
        <_>
          <internalNodes>
            0 -1 300 -5.5522504262626171e-03</internalNodes>
          <leafValues>
            5.1881068944931030e-01 -1.7090715467929840e-01</leafValues></_>
        <_>
          <internalNodes>
            0 -1 197 -2.3704706691205502e-03</internalNodes>
          <leafValues>
            3.6254337430000305e-01 -2.4252082407474518e-01</leafValues></_>
        <_>
          <internalNodes>
            0 -1 331 -1.4482178958132863e-03</internalNodes>
          <leafValues>
            3.6581993103027344e-01 -2.3744075000286102e-01</leafValues></_>
        <_>
          <internalNodes>
            0 -1 242 1.4424619439523667e-04</internalNodes>
          <leafValues>
            -2.5484517216682434e-01 2.9049855470657349e-01</leafValues></_>
        <_>
          <internalNodes>
            0 -1 58 5.5184029042720795e-03</internalNodes>
          <leafValues>
            -2.0796911418437958e-01 3.9473789930343628e-01</leafValues></_>
        <_>
          <internalNodes>
            0 -1 46 -1.1308417655527592e-02</internalNodes>
          <leafValues>
            4.9824658036231995e-01 -1.6430319845676422e-01</leafValues></_>
        <_>
          <internalNodes>
            0 -1 82 2.0670374855399132e-02</internalNodes>
          <leafValues>
            1.1859142780303955e-01 -7.5733029842376709e-01</leafValues></_>
        <_>
          <internalNodes>
            0 -1 71 8.8308835402131081e-03</internalNodes>
          <leafValues>
            1.2034483999013901e-01 -6.3008081912994385e-01</leafValues></_>
        <_>
          <internalNodes>
            0 -1 260 2.6424233801662922e-03</internalNodes>
          <leafValues>
            -3.1043359637260437e-01 2.8624001145362854e-01</leafValues></_>
        <_>
          <internalNodes>
            0 -1 119 -2.6988800615072250e-02</internalNodes>
          <leafValues>
            -8.2768619060516357e-01 8.9342541992664337e-02</leafValues></_>
        <_>
          <internalNodes>
            0 -1 318 1.8367741722613573e-03</internalNodes>
          <leafValues>
            -1.7606338858604431e-01 4.3698790669441223e-01</leafValues></_>
        <_>
          <internalNodes>
            0 -1 34 3.4036207944154739e-02</internalNodes>
          <leafValues>
            -1.0555439442396164e-01 6.3492482900619507e-01</leafValues></_>
        <_>
          <internalNodes>
            0 -1 310 4.2920897249132395e-04</internalNodes>
          <leafValues>
            -2.2407844662666321e-01 3.5743916034698486e-01</leafValues></_>
        <_>
          <internalNodes>
            0 -1 272 2.7288605924695730e-03</internalNodes>
          <leafValues>
            -2.6424962282180786e-01 3.4545350074768066e-01</leafValues></_>
        <_>
          <internalNodes>
            0 -1 142 6.8217039108276367e-02</internalNodes>
          <leafValues>
            -1.4070130884647369e-01 5.6251239776611328e-01</leafValues></_>
        <_>
          <internalNodes>
            0 -1 16 1.0319987311959267e-02</internalNodes>
          <leafValues>
            -1.2551245093345642e-01 5.9029686450958252e-01</leafValues></_>
        <_>
          <internalNodes>
            0 -1 44 -9.2343019787222147e-05</internalNodes>
          <leafValues>
            -4.7689256072044373e-01 1.7323310673236847e-01</leafValues></_>
        <_>
          <internalNodes>
            0 -1 68 -1.5603007748723030e-02</internalNodes>
          <leafValues>
            4.6901482343673706e-01 -1.5510106086730957e-01</leafValues></_>
        <_>
          <internalNodes>
            0 -1 232 -3.3970698714256287e-03</internalNodes>
          <leafValues>
            -7.3602628707885742e-01 1.1511029303073883e-01</leafValues></_>
        <_>
          <internalNodes>
            0 -1 89 -1.6857739537954330e-02</internalNodes>
          <leafValues>
            -9.4979298114776611e-01 6.0525842010974884e-02</leafValues></_></weakClassifiers></_>
    <!-- stage 16 -->
    <_>
      <maxWeakCount>23</maxWeakCount>
      <stageThreshold>-1.0187709331512451e+00</stageThreshold>
      <weakClassifiers>
        <_>
          <internalNodes>
            0 -1 103 3.9520943537354469e-03</internalNodes>
          <leafValues>
            -5.5702917277812958e-02 5.2245861291885376e-01</leafValues></_>
        <_>
          <internalNodes>
            0 -1 236 4.0289858588948846e-04</internalNodes>
          <leafValues>
            -2.1377880871295929e-01 3.5585242509841919e-01</leafValues></_>
        <_>
          <internalNodes>
            0 -1 221 -9.5748133026063442e-04</internalNodes>
          <leafValues>
            4.0019354224205017e-01 -2.2278557717800140e-01</leafValues></_>
        <_>
          <internalNodes>
            0 -1 4 1.7002314329147339e-02</internalNodes>
          <leafValues>
            -2.3583741486072540e-01 3.9555937051773071e-01</leafValues></_>
        <_>
          <internalNodes>
            0 -1 219 3.1548338010907173e-03</internalNodes>
          <leafValues>
            1.4367617666721344e-01 -5.8079278469085693e-01</leafValues></_>
        <_>
          <internalNodes>
            0 -1 309 -3.6758226342499256e-03</internalNodes>
          <leafValues>
            2.9068213701248169e-01 -2.6644602417945862e-01</leafValues></_>
        <_>
          <internalNodes>
            0 -1 160 -8.7790377438068390e-03</internalNodes>
          <leafValues>
            -5.0006222724914551e-01 1.5180651843547821e-01</leafValues></_>
        <_>
          <internalNodes>
            0 -1 129 1.8870707601308823e-02</internalNodes>
          <leafValues>
            -1.4671641588211060e-01 6.0921937227249146e-01</leafValues></_>
        <_>
          <internalNodes>
            0 -1 80 -1.2592416256666183e-02</internalNodes>
          <leafValues>
            4.0964344143867493e-01 -1.6718716919422150e-01</leafValues></_>
        <_>
          <internalNodes>
            0 -1 270 -1.8840651027858257e-03</internalNodes>
          <leafValues>
            -8.4080749750137329e-01 1.0450839251279831e-01</leafValues></_>
        <_>
          <internalNodes>
            0 -1 308 1.0413302807137370e-03</internalNodes>
          <leafValues>
            -2.1179780364036560e-01 3.6086228489875793e-01</leafValues></_>
        <_>
          <internalNodes>
            0 -1 171 -8.0462303012609482e-03</internalNodes>
          <leafValues>
            4.5859530568122864e-01 -1.9326838850975037e-01</leafValues></_>
        <_>
          <internalNodes>
            0 -1 181 1.9056322053074837e-03</internalNodes>
          <leafValues>
            -2.3396256566047668e-01 3.4401479363441467e-01</leafValues></_>
        <_>
          <internalNodes>
            0 -1 109 3.0927462503314018e-03</internalNodes>
          <leafValues>
            2.9112359881401062e-01 -3.0536296963691711e-01</leafValues></_>
        <_>
          <internalNodes>
            0 -1 285 3.4768620971590281e-03</internalNodes>
          <leafValues>
            -2.0899045467376709e-01 3.7974244356155396e-01</leafValues></_>
        <_>
          <internalNodes>
            0 -1 340 3.4104762598872185e-03</internalNodes>
          <leafValues>
            -1.2894840538501740e-01 5.9758746623992920e-01</leafValues></_>
        <_>
          <internalNodes>
            0 -1 301 1.0115972254425287e-03</internalNodes>
          <leafValues>
            -2.1515052020549774e-01 3.8042286038398743e-01</leafValues></_>
        <_>
          <internalNodes>
            0 -1 259 9.2530099209398031e-04</internalNodes>
          <leafValues>
            -1.8675895035266876e-01 4.3340134620666504e-01</leafValues></_>
        <_>
          <internalNodes>
            0 -1 273 -4.8480196855962276e-03</internalNodes>
          <leafValues>
            -7.4815040826797485e-01 1.3034018874168396e-01</leafValues></_>
        <_>
          <internalNodes>
            0 -1 30 1.3680362608283758e-03</internalNodes>
          <leafValues>
            8.8934428989887238e-02 -6.9475674629211426e-01</leafValues></_>
        <_>
          <internalNodes>
            0 -1 141 2.7156895957887173e-03</internalNodes>
          <leafValues>
            -2.1053299307823181e-01 3.7235507369041443e-01</leafValues></_>
        <_>
          <internalNodes>
            0 -1 62 -1.2419262900948524e-02</internalNodes>
          <leafValues>
            -5.7861459255218506e-01 1.4572820067405701e-01</leafValues></_>
        <_>
          <internalNodes>
            0 -1 297 1.6525536775588989e-02</internalNodes>
          <leafValues>
            -2.3311126232147217e-01 3.4129005670547485e-01</leafValues></_></weakClassifiers></_>
    <!-- stage 17 -->
    <_>
      <maxWeakCount>26</maxWeakCount>
      <stageThreshold>-1.0108432769775391e+00</stageThreshold>
      <weakClassifiers>
        <_>
          <internalNodes>
            0 -1 172 1.3393696281127632e-04</internalNodes>
          <leafValues>
            -1.2355212122201920e-01 4.2883548140525818e-01</leafValues></_>
        <_>
          <internalNodes>
            0 -1 11 4.0236726403236389e-02</internalNodes>
          <leafValues>
            -1.9422550499439240e-01 3.2897335290908813e-01</leafValues></_>
        <_>
          <internalNodes>
            0 -1 132 -4.6512046828866005e-03</internalNodes>
          <leafValues>
            2.7428144216537476e-01 -2.5880888104438782e-01</leafValues></_>
        <_>
          <internalNodes>
            0 -1 145 5.9821102768182755e-03</internalNodes>
          <leafValues>
            -2.3626117408275604e-01 2.6600053906440735e-01</leafValues></_>
        <_>
          <internalNodes>
            0 -1 22 6.6156247630715370e-03</internalNodes>
          <leafValues>
            9.7633734345436096e-02 -6.6264653205871582e-01</leafValues></_>
        <_>
          <internalNodes>
            0 -1 20 -1.1591061949729919e-02</internalNodes>
          <leafValues>
            5.9623408317565918e-01 -1.3147912919521332e-01</leafValues></_>
        <_>
          <internalNodes>
            0 -1 296 -2.7690348215401173e-03</internalNodes>
          <leafValues>
            -5.9036493301391602e-01 1.0228969901800156e-01</leafValues></_>
        <_>
          <internalNodes>
            0 -1 24 2.0716035738587379e-02</internalNodes>
          <leafValues>
            -1.5835291147232056e-01 4.0614226460456848e-01</leafValues></_>
        <_>
          <internalNodes>
            0 -1 313 -2.2251371294260025e-02</internalNodes>
          <leafValues>
            -6.8576103448867798e-01 1.0070525854825974e-01</leafValues></_>
        <_>
          <internalNodes>
            0 -1 168 -9.4704581424593925e-03</internalNodes>
          <leafValues>
            -7.4098533391952515e-01 8.1499442458152771e-02</leafValues></_>
        <_>
          <internalNodes>
            0 -1 176 3.4066359512507915e-03</internalNodes>
          <leafValues>
            -1.7520236968994141e-01 4.0297263860702515e-01</leafValues></_>
        <_>
          <internalNodes>
            0 -1 255 4.5619218144565821e-04</internalNodes>
          <leafValues>
            -2.3042410612106323e-01 4.7349542379379272e-01</leafValues></_>
        <_>
          <internalNodes>
            0 -1 233 1.3355652336031199e-03</internalNodes>
          <leafValues>
            -2.3394085466861725e-01 3.6630761623382568e-01</leafValues></_>
        <_>
          <internalNodes>
            0 -1 213 6.5437778830528259e-03</internalNodes>
          <leafValues>
            9.2548899352550507e-02 -9.4506353139877319e-01</leafValues></_>
        <_>
          <internalNodes>
            0 -1 291 -2.7579045854508877e-03</internalNodes>
          <leafValues>
            7.7679491043090820e-01 -1.3141366839408875e-01</leafValues></_>
        <_>
          <internalNodes>
            0 -1 111 2.0302351564168930e-02</internalNodes>
          <leafValues>
            1.1004975438117981e-01 -9.1186434030532837e-01</leafValues></_>
        <_>
          <internalNodes>
            0 -1 43 -2.0395118743181229e-02</internalNodes>
          <leafValues>
            5.8813077211380005e-01 -1.5990012884140015e-01</leafValues></_>
        <_>
          <internalNodes>
            0 -1 207 1.0676985606551170e-02</internalNodes>
          <leafValues>
            1.1446257680654526e-01 -8.3046370744705200e-01</leafValues></_>
        <_>
          <internalNodes>
            0 -1 158 2.7532461099326611e-03</internalNodes>
          <leafValues>
            -2.5176790356636047e-01 3.1717482209205627e-01</leafValues></_>
        <_>
          <internalNodes>
            0 -1 282 -7.3015741072595119e-03</internalNodes>
          <leafValues>
            6.1679476499557495e-01 -1.1288091540336609e-01</leafValues></_>
        <_>
          <internalNodes>
            0 -1 114 6.3638282008469105e-03</internalNodes>
          <leafValues>
            -1.8507680296897888e-01 3.9616599678993225e-01</leafValues></_>
        <_>
          <internalNodes>
            0 -1 28 -1.8204106017947197e-03</internalNodes>
          <leafValues>
            -5.0099843740463257e-01 1.4318066835403442e-01</leafValues></_>
        <_>
          <internalNodes>
            0 -1 96 -3.6207912489771843e-03</internalNodes>
          <leafValues>
            3.5421663522720337e-01 -2.0131216943264008e-01</leafValues></_>
        <_>
          <internalNodes>
            0 -1 195 2.1097317803651094e-03</internalNodes>
          <leafValues>
            -2.4561971426010132e-01 3.1588602066040039e-01</leafValues></_>
        <_>
          <internalNodes>
            0 -1 79 6.7265499383211136e-03</internalNodes>
          <leafValues>
            1.6450960934162140e-01 -4.3349865078926086e-01</leafValues></_>
        <_>
          <internalNodes>
            0 -1 261 1.6194042109418660e-04</internalNodes>
          <leafValues>
            1.5429496765136719e-01 -4.6809211373329163e-01</leafValues></_></weakClassifiers></_>
    <!-- stage 18 -->
    <_>
      <maxWeakCount>28</maxWeakCount>
      <stageThreshold>-9.5319157838821411e-01</stageThreshold>
      <weakClassifiers>
        <_>
          <internalNodes>
            0 -1 307 -4.5025264844298363e-03</internalNodes>
          <leafValues>
            5.0186800956726074e-01 -3.7641155067831278e-03</leafValues></_>
        <_>
          <internalNodes>
            0 -1 6 1.3859550468623638e-02</internalNodes>
          <leafValues>
            -3.0489140748977661e-01 2.6497942209243774e-01</leafValues></_>
        <_>
          <internalNodes>
            0 -1 33 2.1751569584012032e-02</internalNodes>
          <leafValues>
            -1.5863355994224548e-01 4.4876372814178467e-01</leafValues></_>
        <_>
          <internalNodes>
            0 -1 56 -1.8766518682241440e-02</internalNodes>
          <leafValues>
            4.4683215022087097e-01 -1.6842615604400635e-01</leafValues></_>
        <_>
          <internalNodes>
            0 -1 139 -2.6446930132806301e-03</internalNodes>
          <leafValues>
            7.5453025102615356e-01 -8.2494862377643585e-02</leafValues></_>
        <_>
          <internalNodes>
            0 -1 18 -4.6367442701011896e-04</internalNodes>
          <leafValues>
            -5.4376286268234253e-01 1.3861453533172607e-01</leafValues></_>
        <_>
          <internalNodes>
            0 -1 333 5.9190131723880768e-03</internalNodes>
          <leafValues>
            -1.8579998612403870e-01 3.5288202762603760e-01</leafValues></_>
        <_>
          <internalNodes>
            0 -1 27 -4.5495241880416870e-02</internalNodes>
          <leafValues>
            5.4027968645095825e-01 -1.4709945023059845e-01</leafValues></_>
        <_>
          <internalNodes>
            0 -1 326 1.4266924932599068e-02</internalNodes>
          <leafValues>
            -1.0155275464057922e-01 6.4468038082122803e-01</leafValues></_>
        <_>
          <internalNodes>
            0 -1 99 -7.4023328488692641e-04</internalNodes>
          <leafValues>
            3.7349569797515869e-01 -1.8599189817905426e-01</leafValues></_>
        <_>
          <internalNodes>
            0 -1 202 1.5034793177619576e-03</internalNodes>
          <leafValues>
            -2.1953578293323517e-01 3.2063299417495728e-01</leafValues></_>
        <_>
          <internalNodes>
            0 -1 250 2.4779145605862141e-03</internalNodes>
          <leafValues>
            -1.2339819222688675e-01 5.5782473087310791e-01</leafValues></_>
        <_>
          <internalNodes>
            0 -1 98 9.3173037748783827e-04</internalNodes>
          <leafValues>
            -1.3289044797420502e-01 4.7437623143196106e-01</leafValues></_>
        <_>
          <internalNodes>
            0 -1 23 3.0353039619512856e-04</internalNodes>
          <leafValues>
            1.2014092504978180e-01 -5.7875639200210571e-01</leafValues></_>
        <_>
          <internalNodes>
            0 -1 35 1.3743315357714891e-03</internalNodes>
          <leafValues>
            9.9372565746307373e-02 -7.4140399694442749e-01</leafValues></_>
        <_>
          <internalNodes>
            0 -1 220 -3.5779979079961777e-03</internalNodes>
          <leafValues>
            3.9325273036956787e-01 -2.0291559398174286e-01</leafValues></_>
        <_>
          <internalNodes>
            0 -1 258 -1.0904725641012192e-03</internalNodes>
          <leafValues>
            5.2908885478973389e-01 -1.9340214133262634e-01</leafValues></_>
        <_>
          <internalNodes>
            0 -1 251 6.0617653653025627e-03</internalNodes>
          <leafValues>
            9.2931516468524933e-02 -9.5023965835571289e-01</leafValues></_>
        <_>
          <internalNodes>
            0 -1 228 8.1759355962276459e-03</internalNodes>
          <leafValues>
            5.8203335851430893e-02 -8.0971217155456543e-01</leafValues></_>
        <_>
          <internalNodes>
            0 -1 327 4.6359933912754059e-03</internalNodes>
          <leafValues>
            -2.0333936810493469e-01 3.7633073329925537e-01</leafValues></_>
        <_>
          <internalNodes>
            0 -1 343 1.4157450059428811e-03</internalNodes>
          <leafValues>
            1.3288335502147675e-01 -5.6396704912185669e-01</leafValues></_>
        <_>
          <internalNodes>
            0 -1 121 -1.7571833450347185e-03</internalNodes>
          <leafValues>
            7.7776879072189331e-01 -9.5338732004165649e-02</leafValues></_>
        <_>
          <internalNodes>
            0 -1 337 8.9066964574158192e-04</internalNodes>
          <leafValues>
            -1.2399936467409134e-01 4.8926714062690735e-01</leafValues></_>
        <_>
          <internalNodes>
            0 -1 54 3.6112278699874878e-02</internalNodes>
          <leafValues>
            -1.2085450440645218e-01 5.7388472557067871e-01</leafValues></_>
        <_>
          <internalNodes>
            0 -1 320 -1.3447337551042438e-03</internalNodes>
          <leafValues>
            4.7017207741737366e-01 -1.4291404187679291e-01</leafValues></_>
        <_>
          <internalNodes>
            0 -1 314 7.2341272607445717e-04</internalNodes>
          <leafValues>
            -2.0297059416770935e-01 3.3165797591209412e-01</leafValues></_>
        <_>
          <internalNodes>
            0 -1 182 3.3450257033109665e-03</internalNodes>
          <leafValues>
            -1.8120554089546204e-01 4.2303940653800964e-01</leafValues></_>
        <_>
          <internalNodes>
            0 -1 52 1.0918197035789490e-01</internalNodes>
          <leafValues>
            1.0604001581668854e-01 -8.1784760951995850e-01</leafValues></_></weakClassifiers></_>
    <!-- stage 19 -->
    <_>
      <maxWeakCount>29</maxWeakCount>
      <stageThreshold>-1.0000486373901367e+00</stageThreshold>
      <weakClassifiers>
        <_>
          <internalNodes>
            0 -1 152 3.2704928889870644e-03</internalNodes>
          <leafValues>
            2.4096386041492224e-03 5.1688313484191895e-01</leafValues></_>
        <_>
          <internalNodes>
            0 -1 5 5.7874936610460281e-03</internalNodes>
          <leafValues>
            -1.7110204696655273e-01 3.5050952434539795e-01</leafValues></_>
        <_>
          <internalNodes>
            0 -1 117 6.2794657424092293e-03</internalNodes>
          <leafValues>
            -2.0413711667060852e-01 3.5133352875709534e-01</leafValues></_>
        <_>
          <internalNodes>
            0 -1 53 -1.4572456479072571e-02</internalNodes>
          <leafValues>
            5.1266616582870483e-01 -1.4327257871627808e-01</leafValues></_>
        <_>
          <internalNodes>
            0 -1 57 -5.3445324301719666e-02</internalNodes>
          <leafValues>
            -6.9347757101058960e-01 1.0573656857013702e-01</leafValues></_>
        <_>
          <internalNodes>
            0 -1 149 8.1523703411221504e-03</internalNodes>
          <leafValues>
            -1.3286791741847992e-01 5.0791925191879272e-01</leafValues></_>
        <_>
          <internalNodes>
            0 -1 157 -1.0394980199635029e-03</internalNodes>
          <leafValues>
            3.1375297904014587e-01 -3.2642152905464172e-01</leafValues></_>
        <_>
          <internalNodes>
            0 -1 199 -5.3890538401901722e-03</internalNodes>
          <leafValues>
            -6.9314092397689819e-01 1.0789258033037186e-01</leafValues></_>
        <_>
          <internalNodes>
            0 -1 100 -7.0553105324506760e-03</internalNodes>
          <leafValues>
            -6.2204295396804810e-01 8.6363568902015686e-02</leafValues></_>
        <_>
          <internalNodes>
            0 -1 25 5.4769657552242279e-02</internalNodes>
          <leafValues>
            -1.2041108310222626e-01 5.4231512546539307e-01</leafValues></_>
        <_>
          <internalNodes>
            0 -1 26 -4.9088586820289493e-04</internalNodes>
          <leafValues>
            -3.6319485306739807e-01 1.8610841035842896e-01</leafValues></_>
        <_>
          <internalNodes>
            0 -1 40 2.0696200430393219e-02</internalNodes>
          <leafValues>
            1.4135110378265381e-01 -5.3149729967117310e-01</leafValues></_>
        <_>
          <internalNodes>
            0 -1 303 -3.9373491890728474e-03</internalNodes>
          <leafValues>
            -6.4531511068344116e-01 6.8100497126579285e-02</leafValues></_>
        <_>
          <internalNodes>
            0 -1 65 1.8618977628648281e-03</internalNodes>
          <leafValues>
            6.6247761249542236e-02 -8.1695020198822021e-01</leafValues></_>
        <_>
          <internalNodes>
            0 -1 115 -1.7621623119339347e-03</internalNodes>
          <leafValues>
            2.6448854804039001e-01 -2.3699899017810822e-01</leafValues></_>
        <_>
          <internalNodes>
            0 -1 36 -1.9408788532018661e-02</internalNodes>
          <leafValues>
            4.8269581794738770e-01 -1.3558402657508850e-01</leafValues></_>
        <_>
          <internalNodes>
            0 -1 128 1.8156907754018903e-03</internalNodes>
          <leafValues>
            -2.2075557708740234e-01 3.2714629173278809e-01</leafValues></_>
        <_>
          <internalNodes>
            0 -1 122 2.3015593178570271e-03</internalNodes>
          <leafValues>
            -1.1688181757926941e-01 5.3537952899932861e-01</leafValues></_>
        <_>
          <internalNodes>
            0 -1 116 -1.2275851331651211e-03</internalNodes>
          <leafValues>
            3.7998691201210022e-01 -2.0644809305667877e-01</leafValues></_>
        <_>
          <internalNodes>
            0 -1 75 -1.6394983977079391e-02</internalNodes>
          <leafValues>
            -8.9633101224899292e-01 8.9191675186157227e-02</leafValues></_>
        <_>
          <internalNodes>
            0 -1 332 2.1772652864456177e-02</internalNodes>
          <leafValues>
            -1.4623819291591644e-01 5.8456951379776001e-01</leafValues></_>
        <_>
          <internalNodes>
            0 -1 147 4.4124215492047369e-04</internalNodes>
          <leafValues>
            -1.5256325900554657e-01 4.3645098805427551e-01</leafValues></_>
        <_>
          <internalNodes>
            0 -1 143 4.6996846795082092e-02</internalNodes>
          <leafValues>
            -1.5882191061973572e-01 4.6914252638816833e-01</leafValues></_>
        <_>
          <internalNodes>
            0 -1 216 -1.1638958938419819e-02</internalNodes>
          <leafValues>
            -8.1478232145309448e-01 9.3682840466499329e-02</leafValues></_>
        <_>
          <internalNodes>
            0 -1 293 -1.4024320989847183e-03</internalNodes>
          <leafValues>
            7.7932590246200562e-01 -1.0079798847436905e-01</leafValues></_>
        <_>
          <internalNodes>
            0 -1 146 -6.0556139796972275e-03</internalNodes>
          <leafValues>
            4.2790684103965759e-01 -1.5801408886909485e-01</leafValues></_>
        <_>
          <internalNodes>
            0 -1 315 1.4702561311423779e-03</internalNodes>
          <leafValues>
            -1.4695927500724792e-01 4.4776070117950439e-01</leafValues></_>
        <_>
          <internalNodes>
            0 -1 45 -1.5028990805149078e-02</internalNodes>
          <leafValues>
            4.7271066904067993e-01 -1.3711625337600708e-01</leafValues></_>
        <_>
          <internalNodes>
            0 -1 39 -7.9128408106043935e-04</internalNodes>
          <leafValues>
            -5.7692670822143555e-01 1.3313119113445282e-01</leafValues></_></weakClassifiers></_></stages>
  <features>
    <_>
      <rects>
        <_>
          0 1 60 16 -1.</_>
        <_>
          0 1 30 8 2.</_>
        <_>
          30 9 30 8 2.</_></rects>
      <tilted>0</tilted></_>
    <_>
      <rects>
        <_>
          0 4 16 33 -1.</_>
        <_>
          8 4 8 33 2.</_></rects>
      <tilted>0</tilted></_>
    <_>
      <rects>
        <_>
          0 5 24 28 -1.</_>
        <_>
          8 5 8 28 3.</_></rects>
      <tilted>0</tilted></_>
    <_>
      <rects>
        <_>
          0 7 16 33 -1.</_>
        <_>
          8 7 8 33 2.</_></rects>
      <tilted>0</tilted></_>
    <_>
      <rects>
        <_>
          0 10 20 28 -1.</_>
        <_>
          5 10 10 28 2.</_></rects>
      <tilted>0</tilted></_>
    <_>
      <rects>
        <_>
          0 13 16 17 -1.</_>
        <_>
          4 13 8 17 2.</_></rects>
      <tilted>0</tilted></_>
    <_>
      <rects>
        <_>
          0 13 18 22 -1.</_>
        <_>
          9 13 9 22 2.</_></rects>
      <tilted>0</tilted></_>
    <_>
      <rects>
        <_>
          0 15 18 17 -1.</_>
        <_>
          9 15 9 17 2.</_></rects>
      <tilted>0</tilted></_>
    <_>
      <rects>
        <_>
          0 16 18 17 -1.</_>
        <_>
          9 16 9 17 2.</_></rects>
      <tilted>0</tilted></_>
    <_>
      <rects>
        <_>
          0 20 14 12 -1.</_>
        <_>
          7 20 7 12 2.</_></rects>
      <tilted>0</tilted></_>
    <_>
      <rects>
        <_>
          0 26 80 7 -1.</_>
        <_>
          20 26 40 7 2.</_></rects>
      <tilted>0</tilted></_>
    <_>
      <rects>
        <_>
          1 0 30 40 -1.</_>
        <_>
          11 0 10 40 3.</_></rects>
      <tilted>0</tilted></_>
    <_>
      <rects>
        <_>
          1 3 24 36 -1.</_>
        <_>
          7 3 12 36 2.</_></rects>
      <tilted>0</tilted></_>
    <_>
      <rects>
        <_>
          1 8 16 27 -1.</_>
        <_>
          9 8 8 27 2.</_></rects>
      <tilted>0</tilted></_>
    <_>
      <rects>
        <_>
          1 9 24 31 -1.</_>
        <_>
          7 9 12 31 2.</_></rects>
      <tilted>0</tilted></_>
    <_>
      <rects>
        <_>
          1 14 12 18 -1.</_>
        <_>
          7 14 6 18 2.</_></rects>
      <tilted>0</tilted></_>
    <_>
      <rects>
        <_>
          2 29 14 6 -1.</_>
        <_>
          9 29 7 6 2.</_></rects>
      <tilted>0</tilted></_>
    <_>
      <rects>
        <_>
          2 37 2 1 -1.</_>
        <_>
          2 37 1 1 2.</_></rects>
      <tilted>1</tilted></_>
    <_>
      <rects>
        <_>
          3 25 3 4 -1.</_>
        <_>
          3 26 3 2 2.</_></rects>
      <tilted>0</tilted></_>
    <_>
      <rects>
        <_>
          4 1 64 12 -1.</_>
        <_>
          4 1 32 6 2.</_>
        <_>
          36 7 32 6 2.</_></rects>
      <tilted>0</tilted></_>
    <_>
      <rects>
        <_>
          6 13 14 12 -1.</_>
        <_>
          13 13 7 12 2.</_></rects>
      <tilted>0</tilted></_>
    <_>
      <rects>
        <_>
          7 6 10 5 -1.</_>
        <_>
          7 6 5 5 2.</_></rects>
      <tilted>1</tilted></_>
    <_>
      <rects>
        <_>
          7 8 6 21 -1.</_>
        <_>
          9 8 2 21 3.</_></rects>
      <tilted>0</tilted></_>
    <_>
      <rects>
        <_>
          7 26 4 2 -1.</_>
        <_>
          7 27 4 1 2.</_></rects>
      <tilted>0</tilted></_>
    <_>
      <rects>
        <_>
          7 32 69 3 -1.</_>
        <_>
          30 33 23 1 9.</_></rects>
      <tilted>0</tilted></_>
    <_>
      <rects>
        <_>
          8 1 58 22 -1.</_>
        <_>
          8 1 29 11 2.</_>
        <_>
          37 12 29 11 2.</_></rects>
      <tilted>0</tilted></_>
    <_>
      <rects>
        <_>
          8 19 6 12 -1.</_>
        <_>
          11 19 3 12 2.</_></rects>
      <tilted>0</tilted></_>
    <_>
      <rects>
        <_>
          10 18 54 20 -1.</_>
        <_>
          10 18 27 10 2.</_>
        <_>
          37 28 27 10 2.</_></rects>
      <tilted>0</tilted></_>
    <_>
      <rects>
        <_>
          11 0 9 7 -1.</_>
        <_>
          14 0 3 7 3.</_></rects>
      <tilted>0</tilted></_>
    <_>
      <rects>
        <_>
          11 2 6 11 -1.</_>
        <_>
          11 2 3 11 2.</_></rects>
      <tilted>1</tilted></_>
    <_>
      <rects>
        <_>
          11 12 3 15 -1.</_>
        <_>
          12 12 1 15 3.</_></rects>
      <tilted>0</tilted></_>
    <_>
      <rects>
        <_>
          11 14 58 26 -1.</_>
        <_>
          11 14 29 13 2.</_>
        <_>
          40 27 29 13 2.</_></rects>
      <tilted>0</tilted></_>
    <_>
      <rects>
        <_>
          12 24 64 11 -1.</_>
        <_>
          28 24 32 11 2.</_></rects>
      <tilted>0</tilted></_>
    <_>
      <rects>
        <_>
          13 0 44 12 -1.</_>
        <_>
          13 0 22 6 2.</_>
        <_>
          35 6 22 6 2.</_></rects>
      <tilted>0</tilted></_>
    <_>
      <rects>
        <_>
          13 1 54 12 -1.</_>
        <_>
          13 1 27 6 2.</_>
        <_>
          40 7 27 6 2.</_></rects>
      <tilted>0</tilted></_>
    <_>
      <rects>
        <_>
          13 19 4 2 -1.</_>
        <_>
          14 20 2 2 2.</_></rects>
      <tilted>1</tilted></_>
    <_>
      <rects>
        <_>
          13 22 26 18 -1.</_>
        <_>
          13 22 13 9 2.</_>
        <_>
          26 31 13 9 2.</_></rects>
      <tilted>0</tilted></_>
    <_>
      <rects>
        <_>
          14 10 56 22 -1.</_>
        <_>
          42 10 28 22 2.</_></rects>
      <tilted>0</tilted></_>
    <_>
      <rects>
        <_>
          14 25 46 14 -1.</_>
        <_>
          14 25 23 7 2.</_>
        <_>
          37 32 23 7 2.</_></rects>
      <tilted>0</tilted></_>
    <_>
      <rects>
        <_>
          15 1 2 11 -1.</_>
        <_>
          16 1 1 11 2.</_></rects>
      <tilted>0</tilted></_>
    <_>
      <rects>
        <_>
          15 10 52 20 -1.</_>
        <_>
          41 10 26 20 2.</_></rects>
      <tilted>0</tilted></_>
    <_>
      <rects>
        <_>
          15 30 50 10 -1.</_>
        <_>
          15 30 25 5 2.</_>
        <_>
          40 35 25 5 2.</_></rects>
      <tilted>0</tilted></_>
    <_>
      <rects>
        <_>
          15 34 8 3 -1.</_>
        <_>
          17 34 4 3 2.</_></rects>
      <tilted>0</tilted></_>
    <_>
      <rects>
        <_>
          16 6 38 10 -1.</_>
        <_>
          16 6 19 5 2.</_>
        <_>
          35 11 19 5 2.</_></rects>
      <tilted>0</tilted></_>
    <_>
      <rects>
        <_>
          16 30 2 2 -1.</_>
        <_>
          17 30 1 2 2.</_></rects>
      <tilted>0</tilted></_>
    <_>
      <rects>
        <_>
          18 0 12 7 -1.</_>
        <_>
          22 4 4 7 3.</_></rects>
      <tilted>1</tilted></_>
    <_>
      <rects>
        <_>
          18 4 12 6 -1.</_>
        <_>
          22 8 4 6 3.</_></rects>
      <tilted>1</tilted></_>
    <_>
      <rects>
        <_>
          18 7 21 28 -1.</_>
        <_>
          25 7 7 28 3.</_></rects>
      <tilted>0</tilted></_>
    <_>
      <rects>
        <_>
          18 11 44 18 -1.</_>
        <_>
          40 11 22 18 2.</_></rects>
      <tilted>0</tilted></_>
    <_>
      <rects>
        <_>
          18 18 8 7 -1.</_>
        <_>
          22 18 4 7 2.</_></rects>
      <tilted>0</tilted></_>
    <_>
      <rects>
        <_>
          19 2 12 7 -1.</_>
        <_>
          22 5 6 7 2.</_></rects>
      <tilted>1</tilted></_>
    <_>
      <rects>
        <_>
          19 14 44 15 -1.</_>
        <_>
          41 14 22 15 2.</_></rects>
      <tilted>0</tilted></_>
    <_>
      <rects>
        <_>
          19 23 45 12 -1.</_>
        <_>
          34 27 15 4 9.</_></rects>
      <tilted>0</tilted></_>
    <_>
      <rects>
        <_>
          19 24 46 8 -1.</_>
        <_>
          19 24 23 4 2.</_>
        <_>
          42 28 23 4 2.</_></rects>
      <tilted>0</tilted></_>
    <_>
      <rects>
        <_>
          20 1 36 3 -1.</_>
        <_>
          29 10 18 3 2.</_></rects>
      <tilted>1</tilted></_>
    <_>
      <rects>
        <_>
          20 5 60 2 -1.</_>
        <_>
          35 5 30 2 2.</_></rects>
      <tilted>0</tilted></_>
    <_>
      <rects>
        <_>
          21 0 40 10 -1.</_>
        <_>
          21 0 20 5 2.</_>
        <_>
          41 5 20 5 2.</_></rects>
      <tilted>0</tilted></_>
    <_>
      <rects>
        <_>
          21 4 38 33 -1.</_>
        <_>
          40 4 19 33 2.</_></rects>
      <tilted>0</tilted></_>
    <_>
      <rects>
        <_>
          21 5 9 7 -1.</_>
        <_>
          24 8 3 7 3.</_></rects>
      <tilted>1</tilted></_>
    <_>
      <rects>
        <_>
          21 14 8 12 -1.</_>
        <_>
          23 14 4 12 2.</_></rects>
      <tilted>0</tilted></_>
    <_>
      <rects>
        <_>
          21 18 40 8 -1.</_>
        <_>
          41 18 20 8 2.</_></rects>
      <tilted>0</tilted></_>
    <_>
      <rects>
        <_>
          21 25 32 10 -1.</_>
        <_>
          21 25 16 5 2.</_>
        <_>
          37 30 16 5 2.</_></rects>
      <tilted>0</tilted></_>
    <_>
      <rects>
        <_>
          22 3 21 12 -1.</_>
        <_>
          29 3 7 12 3.</_></rects>
      <tilted>0</tilted></_>
    <_>
      <rects>
        <_>
          22 15 30 12 -1.</_>
        <_>
          32 19 10 4 9.</_></rects>
      <tilted>0</tilted></_>
    <_>
      <rects>
        <_>
          22 19 27 3 -1.</_>
        <_>
          31 20 9 1 9.</_></rects>
      <tilted>0</tilted></_>
    <_>
      <rects>
        <_>
          22 19 24 2 -1.</_>
        <_>
          22 20 24 1 2.</_></rects>
      <tilted>0</tilted></_>
    <_>
      <rects>
        <_>
          22 22 46 18 -1.</_>
        <_>
          22 22 23 9 2.</_>
        <_>
          45 31 23 9 2.</_></rects>
      <tilted>0</tilted></_>
    <_>
      <rects>
        <_>
          22 28 34 12 -1.</_>
        <_>
          22 28 17 6 2.</_>
        <_>
          39 34 17 6 2.</_></rects>
      <tilted>0</tilted></_>
    <_>
      <rects>
        <_>
          23 1 32 12 -1.</_>
        <_>
          23 1 16 6 2.</_>
        <_>
          39 7 16 6 2.</_></rects>
      <tilted>0</tilted></_>
    <_>
      <rects>
        <_>
          23 1 36 14 -1.</_>
        <_>
          23 1 18 7 2.</_>
        <_>
          41 8 18 7 2.</_></rects>
      <tilted>0</tilted></_>
    <_>
      <rects>
        <_>
          23 5 56 4 -1.</_>
        <_>
          37 5 28 4 2.</_></rects>
      <tilted>0</tilted></_>
    <_>
      <rects>
        <_>
          23 6 18 32 -1.</_>
        <_>
          29 6 6 32 3.</_></rects>
      <tilted>0</tilted></_>
    <_>
      <rects>
        <_>
          23 13 35 12 -1.</_>
        <_>
          23 19 35 6 2.</_></rects>
      <tilted>0</tilted></_>
    <_>
      <rects>
        <_>
          23 14 34 12 -1.</_>
        <_>
          40 14 17 12 2.</_></rects>
      <tilted>0</tilted></_>
    <_>
      <rects>
        <_>
          23 17 4 6 -1.</_>
        <_>
          24 17 2 6 2.</_></rects>
      <tilted>0</tilted></_>
    <_>
      <rects>
        <_>
          23 17 27 7 -1.</_>
        <_>
          32 17 9 7 3.</_></rects>
      <tilted>0</tilted></_>
    <_>
      <rects>
        <_>
          24 5 34 10 -1.</_>
        <_>
          24 5 17 5 2.</_>
        <_>
          41 10 17 5 2.</_></rects>
      <tilted>0</tilted></_>
    <_>
      <rects>
        <_>
          24 9 8 14 -1.</_>
        <_>
          24 9 4 7 2.</_>
        <_>
          28 16 4 7 2.</_></rects>
      <tilted>0</tilted></_>
    <_>
      <rects>
        <_>
          24 14 24 24 -1.</_>
        <_>
          30 14 12 24 2.</_></rects>
      <tilted>0</tilted></_>
    <_>
      <rects>
        <_>
          24 16 27 8 -1.</_>
        <_>
          33 16 9 8 3.</_></rects>
      <tilted>0</tilted></_>
    <_>
      <rects>
        <_>
          24 26 30 12 -1.</_>
        <_>
          24 26 15 6 2.</_>
        <_>
          39 32 15 6 2.</_></rects>
      <tilted>0</tilted></_>
    <_>
      <rects>
        <_>
          25 3 44 10 -1.</_>
        <_>
          25 3 22 5 2.</_>
        <_>
          47 8 22 5 2.</_></rects>
      <tilted>0</tilted></_>
    <_>
      <rects>
        <_>
          25 10 30 20 -1.</_>
        <_>
          40 10 15 20 2.</_></rects>
      <tilted>0</tilted></_>
    <_>
      <rects>
        <_>
          25 15 35 10 -1.</_>
        <_>
          25 20 35 5 2.</_></rects>
      <tilted>0</tilted></_>
    <_>
      <rects>
        <_>
          25 16 24 3 -1.</_>
        <_>
          31 16 12 3 2.</_></rects>
      <tilted>0</tilted></_>
    <_>
      <rects>
        <_>
          25 20 3 6 -1.</_>
        <_>
          23 22 3 2 3.</_></rects>
      <tilted>1</tilted></_>
    <_>
      <rects>
        <_>
          25 28 24 12 -1.</_>
        <_>
          25 34 24 6 2.</_></rects>
      <tilted>0</tilted></_>
    <_>
      <rects>
        <_>
          26 1 21 15 -1.</_>
        <_>
          33 1 7 15 3.</_></rects>
      <tilted>0</tilted></_>
    <_>
      <rects>
        <_>
          27 0 20 10 -1.</_>
        <_>
          27 5 20 5 2.</_></rects>
      <tilted>0</tilted></_>
    <_>
      <rects>
        <_>
          27 12 12 10 -1.</_>
        <_>
          30 15 6 10 2.</_></rects>
      <tilted>1</tilted></_>
    <_>
      <rects>
        <_>
          27 16 33 12 -1.</_>
        <_>
          38 20 11 4 9.</_></rects>
      <tilted>0</tilted></_>
    <_>
      <rects>
        <_>
          27 18 14 4 -1.</_>
        <_>
          34 18 7 4 2.</_></rects>
      <tilted>0</tilted></_>
    <_>
      <rects>
        <_>
          27 21 3 4 -1.</_>
        <_>
          26 22 3 2 2.</_></rects>
      <tilted>1</tilted></_>
    <_>
      <rects>
        <_>
          27 29 25 10 -1.</_>
        <_>
          27 34 25 5 2.</_></rects>
      <tilted>0</tilted></_>
    <_>
      <rects>
        <_>
          28 4 16 11 -1.</_>
        <_>
          32 4 8 11 2.</_></rects>
      <tilted>0</tilted></_>
    <_>
      <rects>
        <_>
          28 6 6 18 -1.</_>
        <_>
          28 6 3 9 2.</_>
        <_>
          31 15 3 9 2.</_></rects>
      <tilted>0</tilted></_>
    <_>
      <rects>
        <_>
          28 6 16 12 -1.</_>
        <_>
          32 10 8 12 2.</_></rects>
      <tilted>1</tilted></_>
    <_>
      <rects>
        <_>
          28 8 24 9 -1.</_>
        <_>
          36 8 8 9 3.</_></rects>
      <tilted>0</tilted></_>
    <_>
      <rects>
        <_>
          28 12 4 2 -1.</_>
        <_>
          29 13 2 2 2.</_></rects>
      <tilted>1</tilted></_>
    <_>
      <rects>
        <_>
          28 16 4 6 -1.</_>
        <_>
          28 16 2 3 2.</_>
        <_>
          30 19 2 3 2.</_></rects>
      <tilted>0</tilted></_>
    <_>
      <rects>
        <_>
          28 16 10 7 -1.</_>
        <_>
          28 16 5 7 2.</_></rects>
      <tilted>1</tilted></_>
    <_>
      <rects>
        <_>
          28 16 21 9 -1.</_>
        <_>
          35 19 7 3 9.</_></rects>
      <tilted>0</tilted></_>
    <_>
      <rects>
        <_>
          28 16 20 8 -1.</_>
        <_>
          28 20 20 4 2.</_></rects>
      <tilted>0</tilted></_>
    <_>
      <rects>
        <_>
          28 17 15 7 -1.</_>
        <_>
          33 17 5 7 3.</_></rects>
      <tilted>0</tilted></_>
    <_>
      <rects>
        <_>
          28 19 6 3 -1.</_>
        <_>
          30 19 2 3 3.</_></rects>
      <tilted>0</tilted></_>
    <_>
      <rects>
        <_>
          28 20 27 13 -1.</_>
        <_>
          37 20 9 13 3.</_></rects>
      <tilted>0</tilted></_>
    <_>
      <rects>
        <_>
          29 5 24 4 -1.</_>
        <_>
          29 5 12 4 2.</_></rects>
      <tilted>1</tilted></_>
    <_>
      <rects>
        <_>
          29 12 16 16 -1.</_>
        <_>
          29 20 16 8 2.</_></rects>
      <tilted>0</tilted></_>
    <_>
      <rects>
        <_>
          29 15 15 6 -1.</_>
        <_>
          34 15 5 6 3.</_></rects>
      <tilted>0</tilted></_>
    <_>
      <rects>
        <_>
          29 15 24 12 -1.</_>
        <_>
          37 15 8 12 3.</_></rects>
      <tilted>0</tilted></_>
    <_>
      <rects>
        <_>
          29 16 9 8 -1.</_>
        <_>
          32 16 3 8 3.</_></rects>
      <tilted>0</tilted></_>
    <_>
      <rects>
        <_>
          29 16 21 9 -1.</_>
        <_>
          36 19 7 3 9.</_></rects>
      <tilted>0</tilted></_>
    <_>
      <rects>
        <_>
          29 17 6 2 -1.</_>
        <_>
          31 17 2 2 3.</_></rects>
      <tilted>0</tilted></_>
    <_>
      <rects>
        <_>
          29 19 6 3 -1.</_>
        <_>
          31 19 2 3 3.</_></rects>
      <tilted>0</tilted></_>
    <_>
      <rects>
        <_>
          29 19 5 9 -1.</_>
        <_>
          26 22 5 3 3.</_></rects>
      <tilted>1</tilted></_>
    <_>
      <rects>
        <_>
          30 4 9 17 -1.</_>
        <_>
          33 4 3 17 3.</_></rects>
      <tilted>0</tilted></_>
    <_>
      <rects>
        <_>
          30 12 4 12 -1.</_>
        <_>
          30 12 2 6 2.</_>
        <_>
          32 18 2 6 2.</_></rects>
      <tilted>0</tilted></_>
    <_>
      <rects>
        <_>
          30 12 15 9 -1.</_>
        <_>
          35 12 5 9 3.</_></rects>
      <tilted>0</tilted></_>
    <_>
      <rects>
        <_>
          30 12 13 18 -1.</_>
        <_>
          30 18 13 6 3.</_></rects>
      <tilted>0</tilted></_>
    <_>
      <rects>
        <_>
          30 15 24 15 -1.</_>
        <_>
          30 20 24 5 3.</_></rects>
      <tilted>0</tilted></_>
    <_>
      <rects>
        <_>
          30 16 24 12 -1.</_>
        <_>
          38 20 8 4 9.</_></rects>
      <tilted>0</tilted></_>
    <_>
      <rects>
        <_>
          30 17 3 2 -1.</_>
        <_>
          31 18 1 2 3.</_></rects>
      <tilted>1</tilted></_>
    <_>
      <rects>
        <_>
          30 17 4 6 -1.</_>
        <_>
          32 17 2 6 2.</_></rects>
      <tilted>0</tilted></_>
    <_>
      <rects>
        <_>
          30 17 9 5 -1.</_>
        <_>
          33 17 3 5 3.</_></rects>
      <tilted>0</tilted></_>
    <_>
      <rects>
        <_>
          30 18 4 5 -1.</_>
        <_>
          32 18 2 5 2.</_></rects>
      <tilted>0</tilted></_>
    <_>
      <rects>
        <_>
          30 18 4 6 -1.</_>
        <_>
          32 18 2 6 2.</_></rects>
      <tilted>0</tilted></_>
    <_>
      <rects>
        <_>
          30 19 6 4 -1.</_>
        <_>
          32 19 2 4 3.</_></rects>
      <tilted>0</tilted></_>
    <_>
      <rects>
        <_>
          30 19 4 7 -1.</_>
        <_>
          32 19 2 7 2.</_></rects>
      <tilted>0</tilted></_>
    <_>
      <rects>
        <_>
          30 21 10 14 -1.</_>
        <_>
          30 28 10 7 2.</_></rects>
      <tilted>0</tilted></_>
    <_>
      <rects>
        <_>
          30 27 26 12 -1.</_>
        <_>
          30 27 13 6 2.</_>
        <_>
          43 33 13 6 2.</_></rects>
      <tilted>0</tilted></_>
    <_>
      <rects>
        <_>
          31 0 14 8 -1.</_>
        <_>
          31 4 14 4 2.</_></rects>
      <tilted>0</tilted></_>
    <_>
      <rects>
        <_>
          31 10 4 16 -1.</_>
        <_>
          31 10 2 8 2.</_>
        <_>
          33 18 2 8 2.</_></rects>
      <tilted>0</tilted></_>
    <_>
      <rects>
        <_>
          31 10 12 6 -1.</_>
        <_>
          35 14 4 6 3.</_></rects>
      <tilted>1</tilted></_>
    <_>
      <rects>
        <_>
          31 11 3 18 -1.</_>
        <_>
          32 17 1 6 9.</_></rects>
      <tilted>0</tilted></_>
    <_>
      <rects>
        <_>
          31 11 6 4 -1.</_>
        <_>
          33 13 2 4 3.</_></rects>
      <tilted>1</tilted></_>
    <_>
      <rects>
        <_>
          31 16 9 9 -1.</_>
        <_>
          34 19 3 3 9.</_></rects>
      <tilted>0</tilted></_>
    <_>
      <rects>
        <_>
          31 17 4 5 -1.</_>
        <_>
          32 17 2 5 2.</_></rects>
      <tilted>0</tilted></_>
    <_>
      <rects>
        <_>
          31 17 9 7 -1.</_>
        <_>
          34 17 3 7 3.</_></rects>
      <tilted>0</tilted></_>
    <_>
      <rects>
        <_>
          31 18 22 6 -1.</_>
        <_>
          42 18 11 6 2.</_></rects>
      <tilted>0</tilted></_>
    <_>
      <rects>
        <_>
          31 19 4 4 -1.</_>
        <_>
          32 19 2 4 2.</_></rects>
      <tilted>0</tilted></_>
    <_>
      <rects>
        <_>
          31 19 8 2 -1.</_>
        <_>
          33 19 4 2 2.</_></rects>
      <tilted>0</tilted></_>
    <_>
      <rects>
        <_>
          31 24 6 6 -1.</_>
        <_>
          33 26 2 2 9.</_></rects>
      <tilted>0</tilted></_>
    <_>
      <rects>
        <_>
          32 1 15 27 -1.</_>
        <_>
          37 10 5 9 9.</_></rects>
      <tilted>0</tilted></_>
    <_>
      <rects>
        <_>
          32 2 48 35 -1.</_>
        <_>
          44 2 24 35 2.</_></rects>
      <tilted>0</tilted></_>
    <_>
      <rects>
        <_>
          32 3 9 12 -1.</_>
        <_>
          32 7 9 4 3.</_></rects>
      <tilted>0</tilted></_>
    <_>
      <rects>
        <_>
          32 11 9 15 -1.</_>
        <_>
          35 16 3 5 9.</_></rects>
      <tilted>0</tilted></_>
    <_>
      <rects>
        <_>
          32 15 16 8 -1.</_>
        <_>
          36 15 8 8 2.</_></rects>
      <tilted>0</tilted></_>
    <_>
      <rects>
        <_>
          32 16 2 1 -1.</_>
        <_>
          32 16 1 1 2.</_></rects>
      <tilted>1</tilted></_>
    <_>
      <rects>
        <_>
          32 16 16 9 -1.</_>
        <_>
          36 16 8 9 2.</_></rects>
      <tilted>0</tilted></_>
    <_>
      <rects>
        <_>
          32 16 18 4 -1.</_>
        <_>
          38 16 6 4 3.</_></rects>
      <tilted>0</tilted></_>
    <_>
      <rects>
        <_>
          32 17 6 6 -1.</_>
        <_>
          34 17 2 6 3.</_></rects>
      <tilted>0</tilted></_>
    <_>
      <rects>
        <_>
          32 17 6 7 -1.</_>
        <_>
          34 17 2 7 3.</_></rects>
      <tilted>0</tilted></_>
    <_>
      <rects>
        <_>
          32 17 6 8 -1.</_>
        <_>
          34 17 2 8 3.</_></rects>
      <tilted>0</tilted></_>
    <_>
      <rects>
        <_>
          32 17 15 10 -1.</_>
        <_>
          37 17 5 10 3.</_></rects>
      <tilted>0</tilted></_>
    <_>
      <rects>
        <_>
          32 18 4 5 -1.</_>
        <_>
          33 18 2 5 2.</_></rects>
      <tilted>0</tilted></_>
    <_>
      <rects>
        <_>
          32 18 4 7 -1.</_>
        <_>
          33 18 2 7 2.</_></rects>
      <tilted>0</tilted></_>
    <_>
      <rects>
        <_>
          32 18 15 2 -1.</_>
        <_>
          37 18 5 2 3.</_></rects>
      <tilted>0</tilted></_>
    <_>
      <rects>
        <_>
          32 18 12 3 -1.</_>
        <_>
          38 18 6 3 2.</_></rects>
      <tilted>0</tilted></_>
    <_>
      <rects>
        <_>
          32 24 15 3 -1.</_>
        <_>
          37 25 5 1 9.</_></rects>
      <tilted>0</tilted></_>
    <_>
      <rects>
        <_>
          32 32 6 4 -1.</_>
        <_>
          34 32 2 4 3.</_></rects>
      <tilted>0</tilted></_>
    <_>
      <rects>
        <_>
          33 2 32 22 -1.</_>
        <_>
          41 2 16 22 2.</_></rects>
      <tilted>0</tilted></_>
    <_>
      <rects>
        <_>
          33 8 11 8 -1.</_>
        <_>
          33 10 11 4 2.</_></rects>
      <tilted>0</tilted></_>
    <_>
      <rects>
        <_>
          33 11 6 9 -1.</_>
        <_>
          36 11 3 9 2.</_></rects>
      <tilted>0</tilted></_>
    <_>
      <rects>
        <_>
          33 11 6 12 -1.</_>
        <_>
          33 11 6 6 2.</_></rects>
      <tilted>1</tilted></_>
    <_>
      <rects>
        <_>
          33 13 12 14 -1.</_>
        <_>
          36 13 6 14 2.</_></rects>
      <tilted>0</tilted></_>
    <_>
      <rects>
        <_>
          33 13 15 14 -1.</_>
        <_>
          38 13 5 14 3.</_></rects>
      <tilted>0</tilted></_>
    <_>
      <rects>
        <_>
          33 13 18 10 -1.</_>
        <_>
          33 18 18 5 2.</_></rects>
      <tilted>0</tilted></_>
    <_>
      <rects>
        <_>
          33 14 14 14 -1.</_>
        <_>
          33 21 14 7 2.</_></rects>
      <tilted>0</tilted></_>
    <_>
      <rects>
        <_>
          33 16 6 8 -1.</_>
        <_>
          33 16 6 4 2.</_></rects>
      <tilted>1</tilted></_>
    <_>
      <rects>
        <_>
          33 17 4 7 -1.</_>
        <_>
          34 17 2 7 2.</_></rects>
      <tilted>0</tilted></_>
    <_>
      <rects>
        <_>
          33 17 10 6 -1.</_>
        <_>
          38 17 5 6 2.</_></rects>
      <tilted>0</tilted></_>
    <_>
      <rects>
        <_>
          33 17 15 14 -1.</_>
        <_>
          38 17 5 14 3.</_></rects>
      <tilted>0</tilted></_>
    <_>
      <rects>
        <_>
          33 18 4 4 -1.</_>
        <_>
          34 18 2 4 2.</_></rects>
      <tilted>0</tilted></_>
    <_>
      <rects>
        <_>
          33 18 6 4 -1.</_>
        <_>
          35 18 2 4 3.</_></rects>
      <tilted>0</tilted></_>
    <_>
      <rects>
